<?xml version="1.0"?>
<opencv_storage>
<opencv_ml_svm>
  <format>3</format>
  <svmType>C_SVC</svmType>
  <kernel>
    <type>LINEAR</type></kernel>
  <C>1.</C>
  <term_criteria><iterations>1000</iterations></term_criteria>
  <var_count>648</var_count>
  <class_count>10</class_count>
  <class_labels type_id="opencv-matrix">
    <rows>10</rows>
    <cols>1</cols>
    <dt>i</dt>
    <data>
      0 1 2 3 4 5 6 7 8 9</data></class_labels>
  <sv_total>45</sv_total>
  <support_vectors>
    <_>
      2.02802099e-07 2.02802099e-07 2.02802099e-07 8.81659332e-07
      8.81659332e-07 8.81659332e-07 4.27311898e-06 4.27311898e-06
      4.27311898e-06 -5.11918006e-06 -5.11918006e-06 -5.11918006e-06
      -1.19688120e-05 -1.19688120e-05 -1.19688120e-05 -1.30487695e-06
      -1.30487695e-06 -1.30487695e-06 -6.83745111e-06 -6.83745111e-06
      -6.83745111e-06 -2.07310700e-06 -2.07310700e-06 -2.07310700e-06
      -1.26190880e-05 -1.26190880e-05 -1.26190880e-05 -2.57054171e-06
      -2.57054171e-06 -2.57054171e-06 -9.31157196e-09 -9.31157196e-09
      -9.31157196e-09 -5.92923063e-21 -5.92923063e-21 -5.92923063e-21
      7.77002788e-06 7.77002788e-06 7.77002788e-06 1.20108834e-05
      1.20108834e-05 1.20108834e-05 4.80386097e-06 4.80386097e-06
      4.80386097e-06 -3.13585065e-06 -3.13585065e-06 -3.13585065e-06
      -6.53720008e-06 -6.53720008e-06 -6.53720008e-06 -1.65269432e-06
      -1.65269432e-06 -1.65269432e-06 -1.80462052e-06 -1.80462052e-06
      -1.80462052e-06 -9.83290920e-06 -9.83290920e-06 -9.83290920e-06
      -2.56319636e-05 -2.56319636e-05 -2.56319636e-05 -1.24055805e-05
      -1.24055805e-05 -1.24055805e-05 -1.18693310e-06 -1.18693310e-06
      -1.18693310e-06 -9.31157196e-09 -9.31157196e-09 -9.31157196e-09
      1.79397448e-05 1.79397448e-05 1.79397448e-05 1.60709842e-05
      1.60709842e-05 1.60709842e-05 -2.05209540e-06 -2.05209540e-06
      -2.05209540e-06 -1.77200661e-06 -1.77200661e-06 -1.77200661e-06
      -8.10108077e-07 -8.10108077e-07 -8.10108077e-07 1.12929592e-06
      1.12929592e-06 1.12929592e-06 8.14763652e-08 8.14763652e-08
      8.14763652e-08 -2.03486488e-05 -2.03486488e-05 -2.03486488e-05
      -3.52869320e-05 -3.52869320e-05 -3.52869320e-05 -3.24905886e-05
      -3.24905886e-05 -3.24905886e-05 -1.62886918e-05 -1.62886918e-05
      -1.62886918e-05 -8.17568662e-07 -8.17568662e-07 -8.17568662e-07
      8.77497496e-06 8.77497496e-06 8.77497496e-06 1.04206492e-05
      1.04206492e-05 1.04206492e-05 -3.91395542e-06 -3.91395542e-06
      -3.91395542e-06 -3.18147016e-07 -3.18147016e-07 -3.18147016e-07
      7.83286305e-06 7.83286305e-06 7.83286305e-06 1.37615343e-05
      1.37615343e-05 1.37615343e-05 9.48719662e-06 9.48719662e-06
      9.48719662e-06 -1.78468545e-05 -1.78468545e-05 -1.78468545e-05
      -3.48213507e-05 -3.48213507e-05 -3.48213507e-05 -3.84478408e-05
      -3.84478408e-05 -3.84478408e-05 -1.98013604e-05 -1.98013604e-05
      -1.98013604e-05 -7.98337442e-06 -7.98337442e-06 -7.98337442e-06
      -5.54380313e-06 -5.54380313e-06 -5.54380313e-06 -1.33809062e-05
      -1.33809062e-05 -1.33809062e-05 -2.87771109e-05 -2.87771109e-05
      -2.87771109e-05 -1.51180047e-05 -1.51180047e-05 -1.51180047e-05
      8.33843114e-06 8.33843114e-06 8.33843114e-06 3.10596843e-05
      3.10596843e-05 3.10596843e-05 3.44622458e-05 3.44622458e-05
      3.44622458e-05 2.19097637e-06 2.19097637e-06 2.19097637e-06
      -2.76926803e-05 -2.76926803e-05 -2.76926803e-05 -3.80474448e-05
      -3.80474448e-05 -3.80474448e-05 -2.73775768e-05 -2.73775768e-05
      -2.73775768e-05 -1.41655764e-05 -1.41655764e-05 -1.41655764e-05
      -1.76639278e-05 -1.76639278e-05 -1.76639278e-05 -2.81158991e-05
      -2.81158991e-05 -2.81158991e-05 -3.40536499e-05 -3.40536499e-05
      -3.40536499e-05 -1.11942300e-05 -1.11942300e-05 -1.11942300e-05
      5.55680890e-06 5.55680890e-06 5.55680890e-06 2.25703607e-05
      2.25703607e-05 2.25703607e-05 3.44622458e-05 3.44622458e-05
      3.44622458e-05 1.05984427e-05 1.05984427e-05 1.05984427e-05
      -1.58838411e-05 -1.58838411e-05 -1.58838411e-05 -3.60823033e-05
      -3.60823033e-05 -3.60823033e-05 -3.82779144e-05 -3.82779144e-05
      -3.82779144e-05 -1.60626714e-05 -1.60626714e-05 -1.60626714e-05
      -2.17106353e-05 -2.17106353e-05 -2.17106353e-05 -3.85409585e-05
      -3.85409585e-05 -3.85409585e-05 -3.43428728e-05 -3.43428728e-05
      -3.43428728e-05 -9.95691153e-06 -9.95691153e-06 -9.95691153e-06
      8.11277823e-06 8.11277823e-06 8.11277823e-06 2.31684207e-05
      2.31684207e-05 2.31684207e-05 3.45165026e-05 3.45165026e-05
      3.45165026e-05 1.24257786e-05 1.24257786e-05 1.24257786e-05
      -1.48468307e-05 -1.48468307e-05 -1.48468307e-05 -3.44417895e-05
      -3.44417895e-05 -3.44417895e-05 -3.85409585e-05 -3.85409585e-05
      -3.85409585e-05 -1.98278085e-05 -1.98278085e-05 -1.98278085e-05
      -2.43149661e-05 -2.43149661e-05 -2.43149661e-05 -3.85409585e-05
      -3.85409585e-05 -3.85409585e-05 -3.43428728e-05 -3.43428728e-05
      -3.43428728e-05 -9.92845617e-06 -9.92845617e-06 -9.92845617e-06
      8.30449517e-06 8.30449517e-06 8.30449517e-06 2.32299135e-05
      2.32299135e-05 2.32299135e-05 3.45490589e-05 3.45490589e-05
      3.45490589e-05 1.40120374e-05 1.40120374e-05 1.40120374e-05
      -1.40317998e-05 -1.40317998e-05 -1.40317998e-05 -3.44417895e-05
      -3.44417895e-05 -3.44417895e-05 -3.85409585e-05 -3.85409585e-05
      -3.85409585e-05 -2.70558157e-05 -2.70558157e-05 -2.70558157e-05
      -2.70496130e-05 -2.70496130e-05 -2.70496130e-05 -3.85409585e-05
      -3.85409585e-05 -3.85409585e-05 -3.43428728e-05 -3.43428728e-05
      -3.43428728e-05 -9.95691153e-06 -9.95691153e-06 -9.95691153e-06
      8.57579198e-06 8.57579198e-06 8.57579198e-06 2.33203464e-05
      2.33203464e-05 2.33203464e-05 3.44622458e-05 3.44622458e-05
      3.44622458e-05 1.57379509e-05 1.57379509e-05 1.57379509e-05
      -1.31083589e-05 -1.31083589e-05 -1.31083589e-05 -3.44417895e-05
      -3.44417895e-05 -3.44417895e-05 -3.85409585e-05 -3.85409585e-05
      -3.85409585e-05 -2.29263969e-05 -2.29263969e-05 -2.29263969e-05
      -2.37772310e-05 -2.37772310e-05 -2.37772310e-05 -3.85409585e-05
      -3.85409585e-05 -3.85409585e-05 -3.43428728e-05 -3.43428728e-05
      -3.43428728e-05 -9.95691153e-06 -9.95691153e-06 -9.95691153e-06
      8.57579198e-06 8.57579198e-06 8.57579198e-06 2.33203464e-05
      2.33203464e-05 2.33203464e-05 3.44622458e-05 3.44622458e-05
      3.44622458e-05 1.57379509e-05 1.57379509e-05 1.57379509e-05
      -1.31083589e-05 -1.31083589e-05 -1.31083589e-05 -3.60823033e-05
      -3.60823033e-05 -3.60823033e-05 -3.85409585e-05 -3.85409585e-05
      -3.85409585e-05 -1.56594160e-05 -1.56594160e-05 -1.56594160e-05
      -2.86124487e-05 -2.86124487e-05 -2.86124487e-05 -3.85409585e-05
      -3.85409585e-05 -3.85409585e-05 -3.43428728e-05 -3.43428728e-05
      -3.43428728e-05 -9.92845617e-06 -9.92845617e-06 -9.92845617e-06
      8.57579198e-06 8.57579198e-06 8.57579198e-06 2.33203464e-05
      2.33203464e-05 2.33203464e-05 3.44622458e-05 3.44622458e-05
      3.44622458e-05 1.37407405e-05 1.37407405e-05 1.37407405e-05
      -1.40317998e-05 -1.40317998e-05 -1.40317998e-05 -3.60823033e-05
      -3.60823033e-05 -3.60823033e-05 -3.85409585e-05 -3.85409585e-05
      -3.85409585e-05 -1.76424837e-05 -1.76424837e-05 -1.76424837e-05
      -2.33511473e-05 -2.33511473e-05 -2.33511473e-05 -3.85409585e-05
      -3.85409585e-05 -3.85409585e-05 -3.43428728e-05 -3.43428728e-05
      -3.43428728e-05 -1.03945558e-05 -1.03945558e-05 -1.03945558e-05
      7.32939361e-06 7.32939361e-06 7.32939361e-06 2.32226794e-05
      2.32226794e-05 2.32226794e-05 3.44622458e-05 3.44622458e-05
      3.44622458e-05 9.43526084e-06 9.43526084e-06 9.43526084e-06
      -1.60416857e-05 -1.60416857e-05 -1.60416857e-05 -3.60823033e-05
      -3.60823033e-05 -3.60823033e-05 -3.85409585e-05 -3.85409585e-05
      -3.85409585e-05 -1.63363147e-05 -1.63363147e-05 -1.63363147e-05
      -1.82416898e-05 -1.82416898e-05 -1.82416898e-05 -3.78430632e-05
      -3.78430632e-05 -3.78430632e-05 -3.49507100e-05 -3.49507100e-05
      -3.49507100e-05 -1.32344439e-05 -1.32344439e-05 -1.32344439e-05
      5.97110966e-06 5.97110966e-06 5.97110966e-06 2.25703607e-05
      2.25703607e-05 2.25703607e-05 3.22724263e-05 3.22724263e-05
      3.22724263e-05 5.10762175e-06 5.10762175e-06 5.10762175e-06
      -1.79970066e-05 -1.79970066e-05 -1.79970066e-05 -3.44417895e-05
      -3.44417895e-05 -3.44417895e-05 -3.41995801e-05 -3.41995801e-05
      -3.41995801e-05 -1.45184022e-05 -1.45184022e-05 -1.45184022e-05
      -1.13146925e-05 -1.13146925e-05 -1.13146925e-05 -3.04265759e-05
      -3.04265759e-05 -3.04265759e-05 -3.77248034e-05 -3.77248034e-05
      -3.77248034e-05 -2.74571648e-05 -2.74571648e-05 -2.74571648e-05
      -4.50492053e-07 -4.50492053e-07 -4.50492053e-07 2.26824959e-05
      2.26824959e-05 2.26824959e-05 3.00087631e-05 3.00087631e-05
      3.00087631e-05 -5.81308859e-06 -5.81308859e-06 -5.81308859e-06
      -2.33235187e-05 -2.33235187e-05 -2.33235187e-05 -3.59038677e-05
      -3.59038677e-05 -3.59038677e-05 -3.10483556e-05 -3.10483556e-05
      -3.10483556e-05 -1.43045190e-05 -1.43045190e-05 -1.43045190e-05
      -1.09833775e-06 -1.09833775e-06 -1.09833775e-06 -1.49876232e-05
      -1.49876232e-05 -1.49876232e-05 -1.81377800e-05 -1.81377800e-05
      -1.81377800e-05 -1.26127643e-05 -1.26127643e-05 -1.26127643e-05
      2.21302298e-06 2.21302298e-06 2.21302298e-06 1.98888702e-05
      1.98888702e-05 1.98888702e-05 1.92931584e-05 1.92931584e-05
      1.92931584e-05 8.01464284e-06 8.01464284e-06 8.01464284e-06
      -8.08366167e-06 -8.08366167e-06 -8.08366167e-06 -1.28676793e-05
      -1.28676793e-05 -1.28676793e-05 3.79376911e-06 3.79376911e-06
      3.79376911e-06 -4.15935210e-06 -4.15935210e-06 -4.15935210e-06
      2.61944115e-05 2.61944115e-05 2.61944115e-05 1.43812877e-05
      1.43812877e-05 1.43812877e-05 -2.33852711e-06 -2.33852711e-06
      -2.33852711e-06 -7.51638026e-07 -7.51638026e-07 -7.51638026e-07
      1.93145283e-07 1.93145283e-07 1.93145283e-07 3.98007251e-06
      3.98007251e-06 3.98007251e-06 8.06170647e-06 8.06170647e-06
      8.06170647e-06 2.37288123e-06 2.37288123e-06 2.37288123e-06
      -5.36884329e-07 -5.36884329e-07 -5.36884329e-07 -7.51638026e-07
      -7.51638026e-07 -7.51638026e-07 2.05617762e-05 2.05617762e-05
      2.05617762e-05 2.99740386e-05 2.99740386e-05 2.99740386e-05
      1.62388260e-05 1.62388260e-05 1.62388260e-05 2.94970941e-05
      2.94970941e-05 2.94970941e-05 1.30177659e-05 1.30177659e-05
      1.30177659e-05 8.39360609e-07 8.39360609e-07 8.39360609e-07
      -2.63053835e-06 -2.63053835e-06 -2.63053835e-06 -2.63053835e-06
      -2.63053835e-06 -2.63053835e-06 -2.63053835e-06 -2.63053835e-06
      -2.63053835e-06 -3.30538853e-07 -3.30538853e-07 -3.30538853e-07
      5.48883418e-06 5.48883418e-06 5.48883418e-06 1.74840916e-05
      1.74840916e-05 1.74840916e-05 2.61821278e-05 2.61821278e-05
      2.61821278e-05 2.83612299e-05 2.83612299e-05 2.83612299e-05
      1.31361767e-05 1.31361767e-05 1.31361767e-05 1.71823012e-05
      1.71823012e-05 1.71823012e-05 1.62867218e-05 1.62867218e-05
      1.62867218e-05 -6.08903019e-06 -6.08903019e-06 -6.08903019e-06
      -1.12110429e-05 -1.12110429e-05 -1.12110429e-05 -1.55681464e-05
      -1.55681464e-05 -1.55681464e-05 -1.13538863e-05 -1.13538863e-05
      -1.13538863e-05 -6.30189697e-06 -6.30189697e-06 -6.30189697e-06
      5.72729004e-06 5.72729004e-06 5.72729004e-06 2.29103989e-05
      2.29103989e-05 2.29103989e-05 2.32543807e-05 2.32543807e-05
      2.32543807e-05 9.88295960e-06 9.88295960e-06 9.88295960e-06</_>
    <_>
      4.09940913e-05 4.09940913e-05 4.09940913e-05 4.06389954e-05
      4.06389954e-05 4.06389954e-05 2.85998740e-05 2.85998740e-05
      2.85998740e-05 1.92809193e-06 1.92809193e-06 1.92809193e-06
      -1.66844184e-05 -1.66844184e-05 -1.66844184e-05 -7.60833473e-06
      -7.60833473e-06 -7.60833473e-06 4.64200355e-07 4.64200355e-07
      4.64200355e-07 -2.33900664e-05 -2.33900664e-05 -2.33900664e-05
      -1.55267917e-05 -1.55267917e-05 -1.55267917e-05 2.53662110e-05
      2.53662110e-05 2.53662110e-05 -3.29017844e-08 -3.29017844e-08
      -3.29017844e-08 1.69406589e-21 1.69406589e-21 1.69406589e-21
      4.08725064e-05 4.08725064e-05 4.08725064e-05 3.87808541e-05
      3.87808541e-05 3.87808541e-05 2.57049069e-05 2.57049069e-05
      2.57049069e-05 -2.56135195e-06 -2.56135195e-06 -2.56135195e-06
      -1.73916544e-06 -1.73916544e-06 -1.73916544e-06 0. 0. 0. 0. 0. 0.
      0. 0. 0. 1.12006928e-05 1.12006928e-05 1.12006928e-05
      1.16114197e-05 1.16114197e-05 1.16114197e-05 -1.36564870e-06
      -1.36564870e-06 -1.36564870e-06 1.14373478e-07 1.14373478e-07
      1.14373478e-07 2.58516884e-05 2.58516884e-05 2.58516884e-05
      1.34484499e-05 1.34484499e-05 1.34484499e-05 3.72418526e-07
      3.72418526e-07 3.72418526e-07 -3.12867343e-07 -3.12867343e-07
      -3.12867343e-07 -4.23106849e-06 -4.23106849e-06 -4.23106849e-06
      1.48271056e-06 1.48271056e-06 1.48271056e-06 2.37721156e-06
      2.37721156e-06 2.37721156e-06 -4.16883404e-06 -4.16883404e-06
      -4.16883404e-06 -4.82283440e-07 -4.82283440e-07 -4.82283440e-07 0.
      0. 0. -9.20377624e-06 -9.20377624e-06 -9.20377624e-06
      1.38961358e-08 1.38961358e-08 1.38961358e-08 1.13361057e-05
      1.13361057e-05 1.13361057e-05 2.54713741e-05 2.54713741e-05
      2.54713741e-05 1.69416069e-07 1.69416069e-07 1.69416069e-07
      5.72719898e-07 5.72719898e-07 5.72719898e-07 -9.61840669e-06
      -9.61840669e-06 -9.61840669e-06 1.98475464e-05 1.98475464e-05
      1.98475464e-05 2.48341057e-05 2.48341057e-05 2.48341057e-05
      -1.60320396e-05 -1.60320396e-05 -1.60320396e-05 -3.41299074e-06
      -3.41299074e-06 -3.41299074e-06 8.20386163e-07 8.20386163e-07
      8.20386163e-07 8.41699330e-06 8.41699330e-06 8.41699330e-06
      -1.55560811e-05 -1.55560811e-05 -1.55560811e-05 -6.89994010e-07
      -6.89994010e-07 -6.89994010e-07 2.10189955e-05 2.10189955e-05
      2.10189955e-05 2.41423641e-06 2.41423641e-06 2.41423641e-06
      -1.05506815e-05 -1.05506815e-05 -1.05506815e-05 1.92638211e-07
      1.92638211e-07 1.92638211e-07 4.33205241e-05 4.33205241e-05
      4.33205241e-05 4.09940913e-05 4.09940913e-05 4.09940913e-05
      -1.29992450e-05 -1.29992450e-05 -1.29992450e-05 -2.93453268e-05
      -2.93453268e-05 -2.93453268e-05 1.95372331e-06 1.95372331e-06
      1.95372331e-06 -1.01691730e-05 -1.01691730e-05 -1.01691730e-05
      -2.31205231e-05 -2.31205231e-05 -2.31205231e-05 -2.23489969e-05
      -2.23489969e-05 -2.23489969e-05 4.15664044e-06 4.15664044e-06
      4.15664044e-06 -1.08813911e-05 -1.08813911e-05 -1.08813911e-05
      -1.32945288e-05 -1.32945288e-05 -1.32945288e-05 2.74105309e-06
      2.74105309e-06 2.74105309e-06 4.09940913e-05 4.09940913e-05
      4.09940913e-05 2.57217816e-05 2.57217816e-05 2.57217816e-05
      -1.55354883e-06 -1.55354883e-06 -1.55354883e-06 -2.55419909e-05
      -2.55419909e-05 -2.55419909e-05 1.53460189e-06 1.53460189e-06
      1.53460189e-06 -5.49225251e-06 -5.49225251e-06 -5.49225251e-06
      -1.00621055e-05 -1.00621055e-05 -1.00621055e-05 -4.47671337e-05
      -4.47671337e-05 -4.47671337e-05 -3.00271222e-05 -3.00271222e-05
      -3.00271222e-05 -3.65790802e-05 -3.65790802e-05 -3.65790802e-05
      -2.15188302e-05 -2.15188302e-05 -2.15188302e-05 -2.88587415e-07
      -2.88587415e-07 -2.88587415e-07 4.09940913e-05 4.09940913e-05
      4.09940913e-05 8.56832594e-06 8.56832594e-06 8.56832594e-06
      7.97761402e-07 7.97761402e-07 7.97761402e-07 -8.55534381e-06
      -8.55534381e-06 -8.55534381e-06 5.12273891e-06 5.12273891e-06
      5.12273891e-06 -1.65655274e-05 -1.65655274e-05 -1.65655274e-05
      -2.73861133e-05 -2.73861133e-05 -2.73861133e-05 -6.84829647e-05
      -6.84829647e-05 -6.84829647e-05 -4.78928450e-05 -4.78928450e-05
      -4.78928450e-05 -5.39389584e-05 -5.39389584e-05 -5.39389584e-05
      -3.09570132e-05 -3.09570132e-05 -3.09570132e-05 1.69406589e-21
      1.69406589e-21 1.69406589e-21 4.09940913e-05 4.09940913e-05
      4.09940913e-05 8.71838165e-06 8.71838165e-06 8.71838165e-06
      2.25494168e-05 2.25494168e-05 2.25494168e-05 1.01460400e-05
      1.01460400e-05 1.01460400e-05 8.01041006e-06 8.01041006e-06
      8.01041006e-06 -2.04970274e-05 -2.04970274e-05 -2.04970274e-05
      -4.20718970e-05 -4.20718970e-05 -4.20718970e-05 -6.85268387e-05
      -6.85268387e-05 -6.85268387e-05 -5.78250365e-05 -5.78250365e-05
      -5.78250365e-05 -5.49594552e-05 -5.49594552e-05 -5.49594552e-05
      -3.15476718e-05 -3.15476718e-05 -3.15476718e-05 1.69406589e-21
      1.69406589e-21 1.69406589e-21 4.16538933e-05 4.16538933e-05
      4.16538933e-05 2.42144033e-05 2.42144033e-05 2.42144033e-05
      4.51970300e-05 4.51970300e-05 4.51970300e-05 1.92802963e-05
      1.92802963e-05 1.92802963e-05 7.88128455e-06 7.88128455e-06
      7.88128455e-06 -2.14017655e-05 -2.14017655e-05 -2.14017655e-05
      -4.22994308e-05 -4.22994308e-05 -4.22994308e-05 -5.06369288e-05
      -5.06369288e-05 -5.06369288e-05 -6.01020947e-05 -6.01020947e-05
      -6.01020947e-05 -6.02502660e-05 -6.02502660e-05 -6.02502660e-05
      -3.15476718e-05 -3.15476718e-05 -3.15476718e-05 8.28571501e-07
      8.28571501e-07 8.28571501e-07 5.31239057e-05 5.31239057e-05
      5.31239057e-05 4.60583360e-05 4.60583360e-05 4.60583360e-05
      5.47120544e-05 5.47120544e-05 5.47120544e-05 1.60610980e-05
      1.60610980e-05 1.60610980e-05 -1.83665743e-05 -1.83665743e-05
      -1.83665743e-05 -4.50186963e-05 -4.50186963e-05 -4.50186963e-05
      -4.74163426e-05 -4.74163426e-05 -4.74163426e-05 -6.20061692e-05
      -6.20061692e-05 -6.20061692e-05 -6.01020947e-05 -6.01020947e-05
      -6.01020947e-05 -6.02502660e-05 -6.02502660e-05 -6.02502660e-05
      -2.76196861e-05 -2.76196861e-05 -2.76196861e-05 9.70304427e-06
      9.70304427e-06 9.70304427e-06 8.57222694e-05 8.57222694e-05
      8.57222694e-05 6.54678661e-05 6.54678661e-05 6.54678661e-05
      5.05897879e-05 5.05897879e-05 5.05897879e-05 1.08308132e-05
      1.08308132e-05 1.08308132e-05 -3.22187443e-05 -3.22187443e-05
      -3.22187443e-05 -5.76386847e-05 -5.76386847e-05 -5.76386847e-05
      -5.32346166e-05 -5.32346166e-05 -5.32346166e-05 -5.02667681e-05
      -5.02667681e-05 -5.02667681e-05 -6.01020947e-05 -6.01020947e-05
      -6.01020947e-05 -6.08365262e-05 -6.08365262e-05 -6.08365262e-05
      -4.95160930e-06 -4.95160930e-06 -4.95160930e-06 3.52663810e-05
      3.52663810e-05 3.52663810e-05 9.54160496e-05 9.54160496e-05
      9.54160496e-05 8.43865710e-05 8.43865710e-05 8.43865710e-05
      2.83408244e-05 2.83408244e-05 2.83408244e-05 -2.43454251e-05
      -2.43454251e-05 -2.43454251e-05 -4.55817935e-05 -4.55817935e-05
      -4.55817935e-05 -6.01020947e-05 -6.01020947e-05 -6.01020947e-05
      -4.95588574e-05 -4.95588574e-05 -4.95588574e-05 -2.93342982e-05
      -2.93342982e-05 -2.93342982e-05 -5.05958633e-05 -5.05958633e-05
      -5.05958633e-05 -3.34196156e-05 -3.34196156e-05 -3.34196156e-05
      -2.91441916e-06 -2.91441916e-06 -2.91441916e-06 3.81111167e-05
      3.81111167e-05 3.81111167e-05 8.26617252e-05 8.26617252e-05
      8.26617252e-05 6.98168442e-05 6.98168442e-05 6.98168442e-05
      5.51418088e-06 5.51418088e-06 5.51418088e-06 -3.78643272e-05
      -3.78643272e-05 -3.78643272e-05 -4.21945660e-05 -4.21945660e-05
      -4.21945660e-05 -4.52369750e-05 -4.52369750e-05 -4.52369750e-05
      -3.21327425e-05 -3.21327425e-05 -3.21327425e-05 -3.91313870e-06
      -3.91313870e-06 -3.91313870e-06 -1.39924050e-05 -1.39924050e-05
      -1.39924050e-05 -6.75491174e-06 -6.75491174e-06 -6.75491174e-06
      -1.69954492e-05 -1.69954492e-05 -1.69954492e-05 3.33938697e-05
      3.33938697e-05 3.33938697e-05 5.12961778e-05 5.12961778e-05
      5.12961778e-05 4.46889353e-05 4.46889353e-05 4.46889353e-05
      -1.52073662e-05 -1.52073662e-05 -1.52073662e-05 -6.50025322e-05
      -6.50025322e-05 -6.50025322e-05 -3.35951627e-05 -3.35951627e-05
      -3.35951627e-05 -4.89681725e-06 -4.89681725e-06 -4.89681725e-06
      -1.02016529e-07 -1.02016529e-07 -1.02016529e-07 3.03045726e-05
      3.03045726e-05 3.03045726e-05 2.05742690e-05 2.05742690e-05
      2.05742690e-05 -3.11199926e-07 -3.11199926e-07 -3.11199926e-07
      1.07920312e-06 1.07920312e-06 1.07920312e-06 2.02075844e-05
      2.02075844e-05 2.02075844e-05 4.02968908e-05 4.02968908e-05
      4.02968908e-05 2.58515265e-05 2.58515265e-05 2.58515265e-05
      -1.10496003e-05 -1.10496003e-05 -1.10496003e-05 -6.56509364e-05
      -6.56509364e-05 -6.56509364e-05 -1.31088354e-05 -1.31088354e-05
      -1.31088354e-05 3.30005387e-05 3.30005387e-05 3.30005387e-05
      4.92999498e-05 4.92999498e-05 4.92999498e-05 6.60654987e-05
      6.60654987e-05 6.60654987e-05 4.40650147e-05 4.40650147e-05
      4.40650147e-05 1.88475394e-06 1.88475394e-06 1.88475394e-06
      -1.60761135e-06 -1.60761135e-06 -1.60761135e-06 -3.06573056e-05
      -3.06573056e-05 -3.06573056e-05 1.04843739e-05 1.04843739e-05
      1.04843739e-05 1.61449971e-05 1.61449971e-05 1.61449971e-05
      -1.26256828e-05 -1.26256828e-05 -1.26256828e-05 -4.38458665e-05
      -4.38458665e-05 -4.38458665e-05 9.59651970e-07 9.59651970e-07
      9.59651970e-07 4.44447651e-05 4.44447651e-05 4.44447651e-05
      7.52984633e-05 7.52984633e-05 7.52984633e-05 5.09213387e-05
      5.09213387e-05 5.09213387e-05 3.98724405e-05 3.98724405e-05
      3.98724405e-05 1.29596192e-05 1.29596192e-05 1.29596192e-05
      -1.49445395e-05 -1.49445395e-05 -1.49445395e-05 -4.09940913e-05
      -4.09940913e-05 -4.09940913e-05 -1.70406802e-05 -1.70406802e-05
      -1.70406802e-05 -1.70406802e-05 -1.70406802e-05 -1.70406802e-05
      -2.60433044e-05 -2.60433044e-05 -2.60433044e-05 -3.52618626e-05
      -3.52618626e-05 -3.52618626e-05 1.98578346e-05 1.98578346e-05
      1.98578346e-05 5.89085139e-05 5.89085139e-05 5.89085139e-05
      5.37306332e-05 5.37306332e-05 5.37306332e-05 6.97531505e-06
      6.97531505e-06 6.97531505e-06 4.64626573e-05 4.64626573e-05
      4.64626573e-05 2.14444317e-05 2.14444317e-05 2.14444317e-05
      -6.33581794e-06 -6.33581794e-06 -6.33581794e-06 -2.38910179e-05
      -2.38910179e-05 -2.38910179e-05 -3.90414643e-05 -3.90414643e-05
      -3.90414643e-05 -2.86585873e-05 -2.86585873e-05 -2.86585873e-05
      -5.78501067e-06 -5.78501067e-06 -5.78501067e-06 3.88406897e-06
      3.88406897e-06 3.88406897e-06 2.20782276e-05 2.20782276e-05
      2.20782276e-05 6.27522968e-05 6.27522968e-05 6.27522968e-05
      2.23802563e-05 2.23802563e-05 2.23802563e-05</_>
    <_>
      4.57397792e-20 4.57397792e-20 4.57397792e-20 3.36574431e-07
      3.36574431e-07 3.36574431e-07 2.34803156e-06 2.34803156e-06
      2.34803156e-06 -2.49405093e-05 -2.49405093e-05 -2.49405093e-05
      -4.11375222e-05 -4.11375222e-05 -4.11375222e-05 -1.62336801e-05
      -1.62336801e-05 -1.62336801e-05 3.75840887e-06 3.75840887e-06
      3.75840887e-06 8.39633049e-06 8.39633049e-06 8.39633049e-06
      1.03577840e-05 1.03577840e-05 1.03577840e-05 -1.81601411e-06
      -1.81601411e-06 -1.81601411e-06 1.91854728e-08 1.91854728e-08
      1.91854728e-08 4.57397792e-20 4.57397792e-20 4.57397792e-20
      1.47477897e-06 1.47477897e-06 1.47477897e-06 1.19184469e-05
      1.19184469e-05 1.19184469e-05 -4.71865314e-06 -4.71865314e-06
      -4.71865314e-06 6.80553740e-06 6.80553740e-06 6.80553740e-06 0. 0.
      0. 0. 0. 0. 0. 0. 0. 0. 0. 0. 3.72400649e-07 3.72400649e-07
      3.72400649e-07 1.19696915e-05 1.19696915e-05 1.19696915e-05
      6.11662654e-06 6.11662654e-06 6.11662654e-06 3.92965802e-07
      3.92965802e-07 3.92965802e-07 1.00278803e-05 1.00278803e-05
      1.00278803e-05 -5.29205636e-07 -5.29205636e-07 -5.29205636e-07
      -1.01084051e-05 -1.01084051e-05 -1.01084051e-05 0. 0. 0.
      2.23593679e-06 2.23593679e-06 2.23593679e-06 1.88621038e-06
      1.88621038e-06 1.88621038e-06 2.42449528e-06 2.42449528e-06
      2.42449528e-06 -1.29476882e-06 -1.29476882e-06 -1.29476882e-06
      -4.75162551e-07 -4.75162551e-07 -4.75162551e-07 0. 0. 0.
      3.34448305e-05 3.34448305e-05 3.34448305e-05 5.55097085e-06
      5.55097085e-06 5.55097085e-06 -1.53513320e-05 -1.53513320e-05
      -1.53513320e-05 -6.13370673e-07 -6.13370673e-07 -6.13370673e-07 0.
      0. 0. -6.34630055e-07 -6.34630055e-07 -6.34630055e-07
      3.03595175e-06 3.03595175e-06 3.03595175e-06 3.51598055e-06
      3.51598055e-06 3.51598055e-06 4.50031075e-06 4.50031075e-06
      4.50031075e-06 -2.29425459e-05 -2.29425459e-05 -2.29425459e-05
      -1.87207243e-05 -1.87207243e-05 -1.87207243e-05 2.83307827e-07
      2.83307827e-07 2.83307827e-07 1.89944185e-05 1.89944185e-05
      1.89944185e-05 1.25048100e-05 1.25048100e-05 1.25048100e-05
      -3.70982307e-05 -3.70982307e-05 -3.70982307e-05 -2.23797397e-05
      -2.23797397e-05 -2.23797397e-05 -9.42877705e-06 -9.42877705e-06
      -9.42877705e-06 -1.13848209e-05 -1.13848209e-05 -1.13848209e-05
      -7.63436603e-08 -7.63436603e-08 -7.63436603e-08 4.57397792e-20
      4.57397792e-20 4.57397792e-20 4.57397792e-20 4.57397792e-20
      4.57397792e-20 -1.17038826e-05 -1.17038826e-05 -1.17038826e-05
      -4.81644056e-05 -4.81644056e-05 -4.81644056e-05 8.83820121e-07
      8.83820121e-07 8.83820121e-07 7.44744830e-06 7.44744830e-06
      7.44744830e-06 -4.90989169e-06 -4.90989169e-06 -4.90989169e-06
      -4.11280089e-05 -4.11280089e-05 -4.11280089e-05 -6.37993144e-05
      -6.37993144e-05 -6.37993144e-05 -4.61351920e-05 -4.61351920e-05
      -4.61351920e-05 -7.83164796e-06 -7.83164796e-06 -7.83164796e-06
      -2.25541908e-06 -2.25541908e-06 -2.25541908e-06 4.57397792e-20
      4.57397792e-20 4.57397792e-20 4.57397792e-20 4.57397792e-20
      4.57397792e-20 3.96064337e-08 3.96064337e-08 3.96064337e-08
      -2.54057359e-05 -2.54057359e-05 -2.54057359e-05 3.53110840e-06
      3.53110840e-06 3.53110840e-06 0. 0. 0. -2.56139519e-05
      -2.56139519e-05 -2.56139519e-05 -5.20371286e-05 -5.20371286e-05
      -5.20371286e-05 -9.40165555e-05 -9.40165555e-05 -9.40165555e-05
      -6.99456068e-05 -6.99456068e-05 -6.99456068e-05 -2.78886582e-05
      -2.78886582e-05 -2.78886582e-05 4.37149538e-06 4.37149538e-06
      4.37149538e-06 1.35178489e-05 1.35178489e-05 1.35178489e-05
      1.35178489e-05 1.35178489e-05 1.35178489e-05 4.49823619e-06
      4.49823619e-06 4.49823619e-06 1.32715732e-05 1.32715732e-05
      1.32715732e-05 5.28920964e-06 5.28920964e-06 5.28920964e-06
      -2.10976250e-05 -2.10976250e-05 -2.10976250e-05 -4.33605383e-05
      -4.33605383e-05 -4.33605383e-05 -6.46359113e-05 -6.46359113e-05
      -6.46359113e-05 -9.40165555e-05 -9.40165555e-05 -9.40165555e-05
      -6.99456068e-05 -6.99456068e-05 -6.99456068e-05 -2.22703675e-05
      -2.22703675e-05 -2.22703675e-05 4.58276081e-05 4.58276081e-05
      4.58276081e-05 6.21875588e-05 6.21875588e-05 6.21875588e-05
      5.96242462e-05 5.96242462e-05 5.96242462e-05 6.23362503e-05
      6.23362503e-05 6.23362503e-05 4.56425296e-05 4.56425296e-05
      4.56425296e-05 -1.17516465e-05 -1.17516465e-05 -1.17516465e-05
      -6.55604599e-05 -6.55604599e-05 -6.55604599e-05 -6.60265578e-05
      -6.60265578e-05 -6.60265578e-05 -5.42884045e-05 -5.42884045e-05
      -5.42884045e-05 -9.40165555e-05 -9.40165555e-05 -9.40165555e-05
      -7.97295434e-05 -7.97295434e-05 -7.97295434e-05 -1.93149535e-05
      -1.93149535e-05 -1.93149535e-05 6.11197247e-05 6.11197247e-05
      6.11197247e-05 9.40165555e-05 9.40165555e-05 9.40165555e-05
      9.40165555e-05 9.40165555e-05 9.40165555e-05 9.40165555e-05
      9.40165555e-05 9.40165555e-05 4.56425296e-05 4.56425296e-05
      4.56425296e-05 -1.71787451e-05 -1.71787451e-05 -1.71787451e-05
      -8.01163551e-05 -8.01163551e-05 -8.01163551e-05 -5.59228356e-05
      -5.59228356e-05 -5.59228356e-05 -4.51676533e-05 -4.51676533e-05
      -4.51676533e-05 -8.77296261e-05 -8.77296261e-05 -8.77296261e-05
      -6.81696984e-05 -6.81696984e-05 -6.81696984e-05 -2.54034403e-05
      -2.54034403e-05 -2.54034403e-05 1.38737578e-05 1.38737578e-05
      1.38737578e-05 5.24497882e-05 5.24497882e-05 5.24497882e-05
      6.54865726e-05 6.54865726e-05 6.54865726e-05 5.38001223e-05
      5.38001223e-05 5.38001223e-05 4.21987279e-05 4.21987279e-05
      4.21987279e-05 3.59507226e-06 3.59507226e-06 3.59507226e-06
      -2.20355487e-05 -2.20355487e-05 -2.20355487e-05 -4.35121146e-05
      -4.35121146e-05 -4.35121146e-05 -5.62172172e-05 -5.62172172e-05
      -5.62172172e-05 -8.90856318e-05 -8.90856318e-05 -8.90856318e-05
      -5.97417675e-05 -5.97417675e-05 -5.97417675e-05 -2.91715969e-05
      -2.91715969e-05 -2.91715969e-05 4.57397792e-20 4.57397792e-20
      4.57397792e-20 6.50570064e-06 6.50570064e-06 6.50570064e-06
      1.67488870e-05 1.67488870e-05 1.67488870e-05 1.87841615e-05
      1.87841615e-05 1.87841615e-05 7.35736467e-06 7.35736467e-06
      7.35736467e-06 3.81620566e-06 3.81620566e-06 3.81620566e-06
      -2.28142198e-06 -2.28142198e-06 -2.28142198e-06 -5.82030361e-06
      -5.82030361e-06 -5.82030361e-06 -4.51438136e-05 -4.51438136e-05
      -4.51438136e-05 -9.40165555e-05 -9.40165555e-05 -9.40165555e-05
      -6.51876617e-05 -6.51876617e-05 -6.51876617e-05 -3.22601009e-05
      -3.22601009e-05 -3.22601009e-05 -2.88973979e-06 -2.88973979e-06
      -2.88973979e-06 4.57397792e-20 4.57397792e-20 4.57397792e-20
      4.57397792e-20 4.57397792e-20 4.57397792e-20 4.57397792e-20
      4.57397792e-20 4.57397792e-20 -2.57915744e-05 -2.57915744e-05
      -2.57915744e-05 -9.93768299e-06 -9.93768299e-06 -9.93768299e-06 0.
      0. 0. 1.00531406e-05 1.00531406e-05 1.00531406e-05 -4.04733328e-05
      -4.04733328e-05 -4.04733328e-05 -8.08855475e-05 -8.08855475e-05
      -8.08855475e-05 -7.21374963e-05 -7.21374963e-05 -7.21374963e-05
      -3.25679430e-05 -3.25679430e-05 -3.25679430e-05 -4.53562234e-06
      -4.53562234e-06 -4.53562234e-06 4.57397792e-20 4.57397792e-20
      4.57397792e-20 4.57397792e-20 4.57397792e-20 4.57397792e-20
      4.57397792e-20 4.57397792e-20 4.57397792e-20 -4.30260952e-05
      -4.30260952e-05 -4.30260952e-05 -2.00922805e-05 -2.00922805e-05
      -2.00922805e-05 0. 0. 0. 2.76305418e-05 2.76305418e-05
      2.76305418e-05 -1.22146184e-05 -1.22146184e-05 -1.22146184e-05
      -3.16754122e-05 -3.16754122e-05 -3.16754122e-05 -3.96802388e-05
      -3.96802388e-05 -3.96802388e-05 -4.11682631e-05 -4.11682631e-05
      -4.11682631e-05 -2.07493722e-05 -2.07493722e-05 -2.07493722e-05
      4.57397792e-20 4.57397792e-20 4.57397792e-20 4.57397792e-20
      4.57397792e-20 4.57397792e-20 -2.04707994e-05 -2.04707994e-05
      -2.04707994e-05 -3.35193763e-05 -3.35193763e-05 -3.35193763e-05
      -4.49890240e-06 -4.49890240e-06 -4.49890240e-06 5.58324984e-07
      5.58324984e-07 5.58324984e-07 3.46383422e-05 3.46383422e-05
      3.46383422e-05 2.90048392e-05 2.90048392e-05 2.90048392e-05
      1.61558473e-05 1.61558473e-05 1.61558473e-05 -7.32724084e-06
      -7.32724084e-06 -7.32724084e-06 -1.73309036e-05 -1.73309036e-05
      -1.73309036e-05 -1.73875178e-05 -1.73875178e-05 -1.73875178e-05
      5.61251682e-06 5.61251682e-06 5.61251682e-06 6.77227627e-06
      6.77227627e-06 6.77227627e-06 -2.01301082e-05 -2.01301082e-05
      -2.01301082e-05 -5.90381342e-06 -5.90381342e-06 -5.90381342e-06 0.
      0. 0. 1.64137673e-05 1.64137673e-05 1.64137673e-05 1.69217601e-05
      1.69217601e-05 1.69217601e-05 5.58162828e-05 5.58162828e-05
      5.58162828e-05 4.22707635e-05 4.22707635e-05 4.22707635e-05 0. 0.
      0. -1.07157700e-06 -1.07157700e-06 -1.07157700e-06 -3.16292358e-06
      -3.16292358e-06 -3.16292358e-06 5.99610621e-06 5.99610621e-06
      5.99610621e-06 8.60188811e-06 8.60188811e-06 8.60188811e-06
      1.41603539e-06 1.41603539e-06 1.41603539e-06 0. 0. 0. 0. 0. 0.
      1.67681374e-05 1.67681374e-05 1.67681374e-05 1.30776916e-05
      1.30776916e-05 1.30776916e-05 2.40935115e-05 2.40935115e-05
      2.40935115e-05 4.31430381e-05 4.31430381e-05 4.31430381e-05
      1.22203001e-05 1.22203001e-05 1.22203001e-05 -3.56940609e-06
      -3.56940609e-06 -3.56940609e-06 0. 0. 0. 0. 0. 0. 0. 0. 0. 0. 0.
      0. -2.82247929e-05 -2.82247929e-05 -2.82247929e-05 -3.52942857e-06
      -3.52942857e-06 -3.52942857e-06 4.20057722e-06 4.20057722e-06
      4.20057722e-06 5.51073143e-08 5.51073143e-08 5.51073143e-08
      4.80395238e-06 4.80395238e-06 4.80395238e-06 7.46181013e-06
      7.46181013e-06 7.46181013e-06 1.21202174e-05 1.21202174e-05
      1.21202174e-05 6.43262911e-06 6.43262911e-06 6.43262911e-06
      -1.72268597e-06 -1.72268597e-06 -1.72268597e-06 -2.88885058e-05
      -2.88885058e-05 -2.88885058e-05 -3.14615172e-05 -3.14615172e-05
      -3.14615172e-05 -1.14048626e-05 -1.14048626e-05 -1.14048626e-05
      -6.66837468e-06 -6.66837468e-06 -6.66837468e-06 -1.90602805e-05
      -1.90602805e-05 -1.90602805e-05 1.47279489e-09 1.47279489e-09
      1.47279489e-09 4.57397792e-20 4.57397792e-20 4.57397792e-20</_>
    <_>
      5.92923063e-21 5.92923063e-21 5.92923063e-21 -1.38434419e-08
      -1.38434419e-08 -1.38434419e-08 -2.64292930e-06 -2.64292930e-06
      -2.64292930e-06 -1.97559166e-05 -1.97559166e-05 -1.97559166e-05
      -2.00164050e-05 -2.00164050e-05 -2.00164050e-05 -2.37955028e-05
      -2.37955028e-05 -2.37955028e-05 -1.56116585e-05 -1.56116585e-05
      -1.56116585e-05 9.52140817e-06 9.52140817e-06 9.52140817e-06
      3.13294804e-05 3.13294804e-05 3.13294804e-05 4.53080902e-05
      4.53080902e-05 4.53080902e-05 1.44566957e-05 1.44566957e-05
      1.44566957e-05 1.21355479e-05 1.21355479e-05 1.21355479e-05
      -1.38434419e-08 -1.38434419e-08 -1.38434419e-08 -2.10183680e-06
      -2.10183680e-06 -2.10183680e-06 -1.86350353e-05 -1.86350353e-05
      -1.86350353e-05 -4.05215214e-05 -4.05215214e-05 -4.05215214e-05
      -5.45070434e-05 -5.45070434e-05 -5.45070434e-05 -3.37670572e-05
      -3.37670572e-05 -3.37670572e-05 -1.31828365e-05 -1.31828365e-05
      -1.31828365e-05 0. 0. 0. 1.08751992e-05 1.08751992e-05
      1.08751992e-05 4.38273855e-05 4.38273855e-05 4.38273855e-05
      2.46142172e-05 2.46142172e-05 2.46142172e-05 1.24108210e-05
      1.24108210e-05 1.24108210e-05 -1.01681553e-06 -1.01681553e-06
      -1.01681553e-06 -1.53675392e-05 -1.53675392e-05 -1.53675392e-05
      -4.93014450e-05 -4.93014450e-05 -4.93014450e-05 -6.15335593e-05
      -6.15335593e-05 -6.15335593e-05 -5.23655217e-05 -5.23655217e-05
      -5.23655217e-05 -1.03876509e-05 -1.03876509e-05 -1.03876509e-05
      1.19718618e-06 1.19718618e-06 1.19718618e-06 1.44265172e-07
      1.44265172e-07 1.44265172e-07 0. 0. 0. 0. 0. 0. 3.90281866e-06
      3.90281866e-06 3.90281866e-06 1.09206885e-05 1.09206885e-05
      1.09206885e-05 -4.97567362e-06 -4.97567362e-06 -4.97567362e-06
      -3.13730634e-05 -3.13730634e-05 -3.13730634e-05 -6.16445323e-05
      -6.16445323e-05 -6.16445323e-05 -5.89543561e-05 -5.89543561e-05
      -5.89543561e-05 -1.58197563e-05 -1.58197563e-05 -1.58197563e-05
      1.18457265e-05 1.18457265e-05 1.18457265e-05 1.99649603e-05
      1.99649603e-05 1.99649603e-05 1.26381019e-05 1.26381019e-05
      1.26381019e-05 2.86253453e-07 2.86253453e-07 2.86253453e-07
      -1.00643422e-06 -1.00643422e-06 -1.00643422e-06 -1.32133337e-05
      -1.32133337e-05 -1.32133337e-05 9.79002834e-06 9.79002834e-06
      9.79002834e-06 -6.69588235e-06 -6.69588235e-06 -6.69588235e-06
      -3.37776037e-05 -3.37776037e-05 -3.37776037e-05 -5.99201376e-05
      -5.99201376e-05 -5.99201376e-05 -3.51556264e-05 -3.51556264e-05
      -3.51556264e-05 3.11194453e-05 3.11194453e-05 3.11194453e-05
      5.88084476e-05 5.88084476e-05 5.88084476e-05 5.52840647e-05
      5.52840647e-05 5.52840647e-05 4.89741033e-05 4.89741033e-05
      4.89741033e-05 1.21798848e-05 1.21798848e-05 1.21798848e-05
      -5.00779424e-06 -5.00779424e-06 -5.00779424e-06 -2.94905803e-05
      -2.94905803e-05 -2.94905803e-05 -2.52317523e-06 -2.52317523e-06
      -2.52317523e-06 -1.22029996e-05 -1.22029996e-05 -1.22029996e-05
      -4.64057266e-05 -4.64057266e-05 -4.64057266e-05 -5.10533573e-05
      -5.10533573e-05 -5.10533573e-05 -3.19828537e-08 -3.19828537e-08
      -3.19828537e-08 5.09411402e-05 5.09411402e-05 5.09411402e-05
      5.77805258e-05 5.77805258e-05 5.77805258e-05 2.24907799e-05
      2.24907799e-05 2.24907799e-05 3.65174128e-05 3.65174128e-05
      3.65174128e-05 2.94794027e-05 2.94794027e-05 2.94794027e-05
      -1.08670008e-06 -1.08670008e-06 -1.08670008e-06 -3.49125112e-05
      -3.49125112e-05 -3.49125112e-05 -5.12656152e-06 -5.12656152e-06
      -5.12656152e-06 -1.38063724e-05 -1.38063724e-05 -1.38063724e-05
      -5.94662743e-05 -5.94662743e-05 -5.94662743e-05 -2.02631527e-05
      -2.02631527e-05 -2.02631527e-05 2.24869909e-05 2.24869909e-05
      2.24869909e-05 5.66147028e-05 5.66147028e-05 5.66147028e-05
      3.33684875e-05 3.33684875e-05 3.33684875e-05 7.66692574e-06
      7.66692574e-06 7.66692574e-06 1.35187929e-05 1.35187929e-05
      1.35187929e-05 2.69537704e-05 2.69537704e-05 2.69537704e-05
      3.04928858e-06 3.04928858e-06 3.04928858e-06 -3.43447791e-05
      -3.43447791e-05 -3.43447791e-05 -2.23338302e-05 -2.23338302e-05
      -2.23338302e-05 -3.01362925e-05 -3.01362925e-05 -3.01362925e-05
      -3.76245880e-05 -3.76245880e-05 -3.76245880e-05 -8.74085072e-06
      -8.74085072e-06 -8.74085072e-06 3.22333508e-05 3.22333508e-05
      3.22333508e-05 4.51519481e-05 4.51519481e-05 4.51519481e-05
      1.09722732e-05 1.09722732e-05 1.09722732e-05 5.92923063e-21
      5.92923063e-21 5.92923063e-21 1.24059679e-05 1.24059679e-05
      1.24059679e-05 2.96530270e-05 2.96530270e-05 2.96530270e-05
      1.81774317e-06 1.81774317e-06 1.81774317e-06 -3.52989337e-05
      -3.52989337e-05 -3.52989337e-05 -3.24746106e-05 -3.24746106e-05
      -3.24746106e-05 -2.93324938e-05 -2.93324938e-05 -2.93324938e-05
      -1.79738854e-05 -1.79738854e-05 -1.79738854e-05 -2.39558244e-06
      -2.39558244e-06 -2.39558244e-06 2.21464379e-05 2.21464379e-05
      2.21464379e-05 1.78082555e-05 1.78082555e-05 1.78082555e-05
      5.05980188e-06 5.05980188e-06 5.05980188e-06 5.92923063e-21
      5.92923063e-21 5.92923063e-21 1.07631840e-05 1.07631840e-05
      1.07631840e-05 2.88532301e-05 2.88532301e-05 2.88532301e-05
      -1.22736560e-06 -1.22736560e-06 -1.22736560e-06 -3.81009195e-05
      -3.81009195e-05 -3.81009195e-05 -3.18916573e-05 -3.18916573e-05
      -3.18916573e-05 -6.82883729e-06 -6.82883729e-06 -6.82883729e-06
      -9.80284221e-06 -9.80284221e-06 -9.80284221e-06 2.02851243e-06
      2.02851243e-06 2.02851243e-06 1.31525931e-05 1.31525931e-05
      1.31525931e-05 1.05035642e-05 1.05035642e-05 1.05035642e-05
      5.92923063e-21 5.92923063e-21 5.92923063e-21 5.92923063e-21
      5.92923063e-21 5.92923063e-21 1.89078983e-05 1.89078983e-05
      1.89078983e-05 2.88532301e-05 2.88532301e-05 2.88532301e-05
      -1.22736560e-06 -1.22736560e-06 -1.22736560e-06 -3.72918839e-05
      -3.72918839e-05 -3.72918839e-05 -2.41918187e-05 -2.41918187e-05
      -2.41918187e-05 8.90818592e-06 8.90818592e-06 8.90818592e-06
      -3.30573539e-06 -3.30573539e-06 -3.30573539e-06 1.71042257e-06
      1.71042257e-06 1.71042257e-06 2.09417522e-05 2.09417522e-05
      2.09417522e-05 1.47374831e-05 1.47374831e-05 1.47374831e-05
      5.57480007e-06 5.57480007e-06 5.57480007e-06 1.66544378e-05
      1.66544378e-05 1.66544378e-05 3.63488580e-05 3.63488580e-05
      3.63488580e-05 3.46500165e-05 3.46500165e-05 3.46500165e-05
      1.81774317e-06 1.81774317e-06 1.81774317e-06 -2.18729801e-05
      -2.18729801e-05 -2.18729801e-05 -1.46610737e-05 -1.46610737e-05
      -1.46610737e-05 3.90618952e-05 3.90618952e-05 3.90618952e-05 0. 0.
      0. 1.80185998e-06 1.80185998e-06 1.80185998e-06 3.22773049e-05
      3.22773049e-05 3.22773049e-05 4.72994107e-05 4.72994107e-05
      4.72994107e-05 3.02491535e-05 3.02491535e-05 3.02491535e-05
      4.43813187e-05 4.43813187e-05 4.43813187e-05 5.28117562e-05
      5.28117562e-05 5.28117562e-05 4.01195612e-05 4.01195612e-05
      4.01195612e-05 3.98544762e-06 3.98544762e-06 3.98544762e-06
      -2.09028667e-06 -2.09028667e-06 -2.09028667e-06 1.44659055e-06
      1.44659055e-06 1.44659055e-06 4.53635075e-05 4.53635075e-05
      4.53635075e-05 0. 0. 0. -9.73376473e-07 -9.73376473e-07
      -9.73376473e-07 1.62959732e-05 1.62959732e-05 1.62959732e-05
      3.75064337e-05 3.75064337e-05 3.75064337e-05 3.46490160e-05
      3.46490160e-05 3.46490160e-05 3.81413374e-05 3.81413374e-05
      3.81413374e-05 5.58866195e-05 5.58866195e-05 5.58866195e-05
      3.70390699e-05 3.70390699e-05 3.70390699e-05 3.98544762e-06
      3.98544762e-06 3.98544762e-06 -3.20439790e-06 -3.20439790e-06
      -3.20439790e-06 9.39705046e-07 9.39705046e-07 9.39705046e-07
      2.34514646e-05 2.34514646e-05 2.34514646e-05 -3.88746639e-06
      -3.88746639e-06 -3.88746639e-06 -2.36081505e-05 -2.36081505e-05
      -2.36081505e-05 -2.51353813e-05 -2.51353813e-05 -2.51353813e-05
      -5.52571555e-06 -5.52571555e-06 -5.52571555e-06 1.72083837e-05
      1.72083837e-05 1.72083837e-05 1.75210698e-05 1.75210698e-05
      1.75210698e-05 3.72693357e-05 3.72693357e-05 3.72693357e-05
      1.49885091e-05 1.49885091e-05 1.49885091e-05 -1.21764242e-06
      -1.21764242e-06 -1.21764242e-06 -6.54652285e-06 -6.54652285e-06
      -6.54652285e-06 9.38426638e-06 9.38426638e-06 9.38426638e-06
      1.18687024e-06 1.18687024e-06 1.18687024e-06 -3.17426566e-05
      -3.17426566e-05 -3.17426566e-05 -5.58126230e-05 -5.58126230e-05
      -5.58126230e-05 -5.44327304e-05 -5.44327304e-05 -5.44327304e-05
      -3.85762032e-05 -3.85762032e-05 -3.85762032e-05 7.98329097e-07
      7.98329097e-07 7.98329097e-07 4.55759027e-06 4.55759027e-06
      4.55759027e-06 1.20969908e-05 1.20969908e-05 1.20969908e-05
      1.87908324e-06 1.87908324e-06 1.87908324e-06 -1.00643422e-06
      -1.00643422e-06 -1.00643422e-06 1.36816197e-05 1.36816197e-05
      1.36816197e-05 3.04206642e-05 3.04206642e-05 3.04206642e-05
      -2.89040031e-07 -2.89040031e-07 -2.89040031e-07 -1.14544409e-05
      -1.14544409e-05 -1.14544409e-05 -4.82727046e-05 -4.82727046e-05
      -4.82727046e-05 -6.00204075e-05 -6.00204075e-05 -6.00204075e-05
      -4.99134039e-05 -4.99134039e-05 -4.99134039e-05 -8.55354756e-06
      -8.55354756e-06 -8.55354756e-06 5.83776909e-06 5.83776909e-06
      5.83776909e-06 2.88232968e-06 2.88232968e-06 2.88232968e-06
      -1.35902933e-08 -1.35902933e-08 -1.35902933e-08 7.14016915e-06
      7.14016915e-06 7.14016915e-06 3.08819690e-05 3.08819690e-05
      3.08819690e-05 5.54669932e-05 5.54669932e-05 5.54669932e-05
      -1.96825923e-07 -1.96825923e-07 -1.96825923e-07 -6.90260094e-06
      -6.90260094e-06 -6.90260094e-06 -2.64540940e-05 -2.64540940e-05
      -2.64540940e-05 -4.74339286e-05 -4.74339286e-05 -4.74339286e-05
      -2.84807920e-05 -2.84807920e-05 -2.84807920e-05 -5.11944245e-06
      -5.11944245e-06 -5.11944245e-06 -4.63862989e-07 -4.63862989e-07
      -4.63862989e-07 -3.82236385e-06 -3.82236385e-06 -3.82236385e-06
      5.96340442e-06 5.96340442e-06 5.96340442e-06 2.86284576e-05
      2.86284576e-05 2.86284576e-05 3.98064258e-05 3.98064258e-05
      3.98064258e-05 5.19254972e-05 5.19254972e-05 5.19254972e-05
      5.92923063e-21 5.92923063e-21 5.92923063e-21 -6.00118597e-07
      -6.00118597e-07 -6.00118597e-07 -7.25384098e-06 -7.25384098e-06
      -7.25384098e-06 -1.87046680e-05 -1.87046680e-05 -1.87046680e-05
      -3.29542381e-05 -3.29542381e-05 -3.29542381e-05 -1.20060054e-06
      -1.20060054e-06 -1.20060054e-06 -1.68354509e-05 -1.68354509e-05
      -1.68354509e-05 2.20250604e-06 2.20250604e-06 2.20250604e-06
      1.35135688e-05 1.35135688e-05 1.35135688e-05 2.90006064e-05
      2.90006064e-05 2.90006064e-05 2.78699754e-05 2.78699754e-05
      2.78699754e-05 1.34429192e-05 1.34429192e-05 1.34429192e-05</_>
    <_>
      5.00453332e-08 5.00453332e-08 5.00453332e-08 1.35486007e-05
      1.35486007e-05 1.35486007e-05 4.79796799e-05 4.79796799e-05
      4.79796799e-05 6.02618411e-06 6.02618411e-06 6.02618411e-06
      -2.39800702e-05 -2.39800702e-05 -2.39800702e-05 -2.63519723e-05
      -2.63519723e-05 -2.63519723e-05 -2.55681898e-05 -2.55681898e-05
      -2.55681898e-05 -2.56362036e-05 -2.56362036e-05 -2.56362036e-05
      7.53821769e-06 7.53821769e-06 7.53821769e-06 2.27014789e-05
      2.27014789e-05 2.27014789e-05 2.90738481e-05 2.90738481e-05
      2.90738481e-05 1.94086388e-05 1.94086388e-05 1.94086388e-05
      2.09425843e-06 2.09425843e-06 2.09425843e-06 4.56695016e-05
      4.56695016e-05 4.56695016e-05 3.71826318e-05 3.71826318e-05
      3.71826318e-05 7.71112070e-07 7.71112070e-07 7.71112070e-07
      -1.30653405e-06 -1.30653405e-06 -1.30653405e-06 -1.75026264e-06
      -1.75026264e-06 -1.75026264e-06 -1.75026264e-06 -1.75026264e-06
      -1.75026264e-06 -1.75026264e-06 -1.75026264e-06 -1.75026264e-06
      3.22128085e-06 3.22128085e-06 3.22128085e-06 2.54751230e-05
      2.54751230e-05 2.54751230e-05 4.32140369e-05 4.32140369e-05
      4.32140369e-05 2.78460357e-05 2.78460357e-05 2.78460357e-05
      2.23105098e-06 2.23105098e-06 2.23105098e-06 2.76451101e-05
      2.76451101e-05 2.76451101e-05 3.26382803e-07 3.26382803e-07
      3.26382803e-07 0. 0. 0. -2.86807676e-06 -2.86807676e-06
      -2.86807676e-06 1.71468412e-06 1.71468412e-06 1.71468412e-06
      -2.67191876e-06 -2.67191876e-06 -2.67191876e-06 -5.37859250e-06
      -5.37859250e-06 -5.37859250e-06 -6.74148259e-06 -6.74148259e-06
      -6.74148259e-06 6.06666117e-06 6.06666117e-06 6.06666117e-06
      2.20491947e-05 2.20491947e-05 2.20491947e-05 1.49054913e-05
      1.49054913e-05 1.49054913e-05 -8.77299044e-06 -8.77299044e-06
      -8.77299044e-06 -2.08705228e-06 -2.08705228e-06 -2.08705228e-06
      -1.12254497e-06 -1.12254497e-06 -1.12254497e-06 -2.21303458e-06
      -2.21303458e-06 -2.21303458e-06 -2.03964591e-05 -2.03964591e-05
      -2.03964591e-05 -6.98951936e-08 -6.98951936e-08 -6.98951936e-08
      -3.76402795e-06 -3.76402795e-06 -3.76402795e-06 -2.33805622e-05
      -2.33805622e-05 -2.33805622e-05 -4.64874865e-05 -4.64874865e-05
      -4.64874865e-05 -4.31199769e-05 -4.31199769e-05 -4.31199769e-05
      -3.51688977e-05 -3.51688977e-05 -3.51688977e-05 -2.52469763e-05
      -2.52469763e-05 -2.52469763e-05 -2.34409508e-05 -2.34409508e-05
      -2.34409508e-05 -3.23921267e-05 -3.23921267e-05 -3.23921267e-05
      -5.02519470e-06 -5.02519470e-06 -5.02519470e-06 -4.74916487e-06
      -4.74916487e-06 -4.74916487e-06 5.23366543e-06 5.23366543e-06
      5.23366543e-06 2.15187174e-06 2.15187174e-06 2.15187174e-06
      2.15187174e-06 2.15187174e-06 2.15187174e-06 5.72431236e-06
      5.72431236e-06 5.72431236e-06 -3.38558821e-05 -3.38558821e-05
      -3.38558821e-05 -6.26658439e-05 -6.26658439e-05 -6.26658439e-05
      -5.66321723e-05 -5.66321723e-05 -5.66321723e-05 -3.15773214e-05
      -3.15773214e-05 -3.15773214e-05 -2.39563069e-05 -2.39563069e-05
      -2.39563069e-05 -2.08137008e-05 -2.08137008e-05 -2.08137008e-05
      -1.00688146e-06 -1.00688146e-06 -1.00688146e-06 3.01366435e-05
      3.01366435e-05 3.01366435e-05 2.51767651e-05 2.51767651e-05
      2.51767651e-05 4.05783703e-06 4.05783703e-06 4.05783703e-06
      8.09953690e-06 8.09953690e-06 8.09953690e-06 4.53591747e-06
      4.53591747e-06 4.53591747e-06 -3.03832676e-05 -3.03832676e-05
      -3.03832676e-05 -8.00732960e-05 -8.00732960e-05 -8.00732960e-05
      -9.16708887e-05 -9.16708887e-05 -9.16708887e-05 -4.67853752e-05
      -4.67853752e-05 -4.67853752e-05 -3.12238153e-05 -3.12238153e-05
      -3.12238153e-05 -2.10394228e-05 -2.10394228e-05 -2.10394228e-05
      -8.02794602e-07 -8.02794602e-07 -8.02794602e-07 4.34128160e-05
      4.34128160e-05 4.34128160e-05 5.21361544e-05 5.21361544e-05
      5.21361544e-05 3.19262617e-05 3.19262617e-05 3.19262617e-05
      5.05426033e-05 5.05426033e-05 5.05426033e-05 4.60392876e-05
      4.60392876e-05 4.60392876e-05 1.13188275e-06 1.13188275e-06
      1.13188275e-06 -5.36133739e-05 -5.36133739e-05 -5.36133739e-05
      -7.99652407e-05 -7.99652407e-05 -7.99652407e-05 -5.15511856e-05
      -5.15511856e-05 -5.15511856e-05 -4.53983412e-05 -4.53983412e-05
      -4.53983412e-05 -2.74209469e-05 -2.74209469e-05 -2.74209469e-05
      -8.02794602e-07 -8.02794602e-07 -8.02794602e-07 5.42874986e-05
      5.42874986e-05 5.42874986e-05 8.01337665e-05 8.01337665e-05
      8.01337665e-05 7.54267021e-05 7.54267021e-05 7.54267021e-05
      9.15327546e-05 9.15327546e-05 9.15327546e-05 8.75028563e-05
      8.75028563e-05 8.75028563e-05 4.10413340e-05 4.10413340e-05
      4.10413340e-05 -1.84950732e-05 -1.84950732e-05 -1.84950732e-05
      -5.04455274e-05 -5.04455274e-05 -5.04455274e-05 -5.37710512e-05
      -5.37710512e-05 -5.37710512e-05 -4.87539692e-05 -4.87539692e-05
      -4.87539692e-05 -3.80663150e-05 -3.80663150e-05 -3.80663150e-05
      -7.84489930e-06 -7.84489930e-06 -7.84489930e-06 5.43680544e-05
      5.43680544e-05 5.43680544e-05 7.93298386e-05 7.93298386e-05
      7.93298386e-05 6.97139403e-05 6.97139403e-05 6.97139403e-05
      7.02143952e-05 7.02143952e-05 7.02143952e-05 7.65195364e-05
      7.65195364e-05 7.65195364e-05 5.51512858e-05 5.51512858e-05
      5.51512858e-05 -1.65778454e-06 -1.65778454e-06 -1.65778454e-06
      -3.62834835e-05 -3.62834835e-05 -3.62834835e-05 -3.01361179e-05
      -3.01361179e-05 -3.01361179e-05 -4.88240912e-05 -4.88240912e-05
      -4.88240912e-05 -5.02904804e-05 -5.02904804e-05 -5.02904804e-05
      -1.50580345e-05 -1.50580345e-05 -1.50580345e-05 3.21595653e-05
      3.21595653e-05 3.21595653e-05 4.51691994e-05 4.51691994e-05
      4.51691994e-05 2.87144758e-05 2.87144758e-05 2.87144758e-05
      2.90505850e-05 2.90505850e-05 2.90505850e-05 3.58584293e-05
      3.58584293e-05 3.58584293e-05 2.85495735e-05 2.85495735e-05
      2.85495735e-05 4.05163564e-06 4.05163564e-06 4.05163564e-06
      -1.41082110e-05 -1.41082110e-05 -1.41082110e-05 -1.58205639e-05
      -1.58205639e-05 -1.58205639e-05 -5.35165454e-05 -5.35165454e-05
      -5.35165454e-05 -7.94563239e-05 -7.94563239e-05 -7.94563239e-05
      -5.51593366e-05 -5.51593366e-05 -5.51593366e-05 -1.73309891e-05
      -1.73309891e-05 -1.73309891e-05 1.27007561e-05 1.27007561e-05
      1.27007561e-05 1.15451003e-05 1.15451003e-05 1.15451003e-05
      1.15451003e-05 1.15451003e-05 1.15451003e-05 1.57457689e-05
      1.57457689e-05 1.57457689e-05 2.66983102e-06 2.66983102e-06
      2.66983102e-06 -3.35510890e-06 -3.35510890e-06 -3.35510890e-06 0.
      0. 0. -1.96373476e-05 -1.96373476e-05 -1.96373476e-05
      -2.97465576e-05 -2.97465576e-05 -2.97465576e-05 -9.28275913e-05
      -9.28275913e-05 -9.28275913e-05 -8.08720142e-05 -8.08720142e-05
      -8.08720142e-05 -3.87094078e-05 -3.87094078e-05 -3.87094078e-05
      -5.42266605e-07 -5.42266605e-07 -5.42266605e-07 0. 0. 0. 0. 0. 0.
      2.50506878e-06 2.50506878e-06 2.50506878e-06 -9.98164069e-06
      -9.98164069e-06 -9.98164069e-06 -5.25179166e-06 -5.25179166e-06
      -5.25179166e-06 0. 0. 0. -5.12783254e-06 -5.12783254e-06
      -5.12783254e-06 -2.68195181e-05 -2.68195181e-05 -2.68195181e-05
      -7.81400668e-05 -7.81400668e-05 -7.81400668e-05 -7.61430420e-05
      -7.61430420e-05 -7.61430420e-05 -4.17113770e-05 -4.17113770e-05
      -4.17113770e-05 -9.47848821e-06 -9.47848821e-06 -9.47848821e-06 0.
      0. 0. 0. 0. 0. -1.40346856e-07 -1.40346856e-07 -1.40346856e-07
      -1.43500411e-05 -1.43500411e-05 -1.43500411e-05 -3.07974892e-06
      -3.07974892e-06 -3.07974892e-06 0. 0. 0. 2.25351014e-05
      2.25351014e-05 2.25351014e-05 -9.37435573e-07 -9.37435573e-07
      -9.37435573e-07 -2.79381347e-05 -2.79381347e-05 -2.79381347e-05
      -4.36310038e-05 -4.36310038e-05 -4.36310038e-05 -3.24609719e-05
      -3.24609719e-05 -3.24609719e-05 -1.66029931e-05 -1.66029931e-05
      -1.66029931e-05 0. 0. 0. 0. 0. 0. -1.13470742e-05 -1.13470742e-05
      -1.13470742e-05 -3.80176753e-05 -3.80176753e-05 -3.80176753e-05
      -3.04602349e-06 -3.04602349e-06 -3.04602349e-06 3.64986704e-06
      3.64986704e-06 3.64986704e-06 2.75556249e-05 2.75556249e-05
      2.75556249e-05 6.12400763e-05 6.12400763e-05 6.12400763e-05
      2.18505866e-05 2.18505866e-05 2.18505866e-05 -1.64576068e-05
      -1.64576068e-05 -1.64576068e-05 -3.25402034e-05 -3.25402034e-05
      -3.25402034e-05 -8.28372049e-06 -8.28372049e-06 -8.28372049e-06
      2.37159657e-05 2.37159657e-05 2.37159657e-05 2.00474915e-05
      2.00474915e-05 2.00474915e-05 -5.09996312e-07 -5.09996312e-07
      -5.09996312e-07 -1.08777795e-05 -1.08777795e-05 -1.08777795e-05
      -2.33976309e-07 -2.33976309e-07 -2.33976309e-07 3.21403350e-05
      3.21403350e-05 3.21403350e-05 3.54192998e-05 3.54192998e-05
      3.54192998e-05 6.82758255e-05 6.82758255e-05 6.82758255e-05
      5.43200076e-05 5.43200076e-05 5.43200076e-05 -1.30735771e-06
      -1.30735771e-06 -1.30735771e-06 -3.94417020e-06 -3.94417020e-06
      -3.94417020e-06 -2.17403049e-05 -2.17403049e-05 -2.17403049e-05
      -1.59675237e-05 -1.59675237e-05 -1.59675237e-05 -1.87448052e-06
      -1.87448052e-06 -1.87448052e-06 -2.27526766e-06 -2.27526766e-06
      -2.27526766e-06 0. 0. 0. -1.50645246e-06 -1.50645246e-06
      -1.50645246e-06 2.08791298e-05 2.08791298e-05 2.08791298e-05
      1.00435473e-05 1.00435473e-05 1.00435473e-05 3.45975677e-05
      3.45975677e-05 3.45975677e-05 4.09243985e-05 4.09243985e-05
      4.09243985e-05 3.09089301e-05 3.09089301e-05 3.09089301e-05
      -1.69391501e-06 -1.69391501e-06 -1.69391501e-06 -1.74265654e-06
      -1.74265654e-06 -1.74265654e-06 -2.28723684e-06 -2.28723684e-06
      -2.28723684e-06 0. 0. 0. 0. 0. 0. -1.50663154e-05 -1.50663154e-05
      -1.50663154e-05 -2.26333104e-05 -2.26333104e-05 -2.26333104e-05
      4.05473747e-06 4.05473747e-06 4.05473747e-06 4.10581464e-07
      4.10581464e-07 4.10581464e-07 3.17139325e-06 3.17139325e-06
      3.17139325e-06 2.77304971e-05 2.77304971e-05 2.77304971e-05
      1.79751532e-05 1.79751532e-05 1.79751532e-05 2.82705037e-06
      2.82705037e-06 2.82705037e-06 -1.61855187e-05 -1.61855187e-05
      -1.61855187e-05 -9.40209793e-06 -9.40209793e-06 -9.40209793e-06
      -6.16062744e-06 -6.16062744e-06 -6.16062744e-06 -1.15742760e-05
      -1.15742760e-05 -1.15742760e-05 -1.57009272e-05 -1.57009272e-05
      -1.57009272e-05 -1.13636870e-05 -1.13636870e-05 -1.13636870e-05
      -1.29878219e-06 -1.29878219e-06 -1.29878219e-06 0. 0. 0.</_>
    <_>
      -4.57397792e-20 -4.57397792e-20 -4.57397792e-20 -4.84696585e-08
      -4.84696585e-08 -4.84696585e-08 -1.25085335e-05 -1.25085335e-05
      -1.25085335e-05 -4.01251382e-05 -4.01251382e-05 -4.01251382e-05
      -5.88129005e-05 -5.88129005e-05 -5.88129005e-05 -3.32104282e-05
      -3.32104282e-05 -3.32104282e-05 -1.34662405e-05 -1.34662405e-05
      -1.34662405e-05 1.41693690e-05 1.41693690e-05 1.41693690e-05
      4.57563292e-05 4.57563292e-05 4.57563292e-05 5.35785839e-05
      5.35785839e-05 5.35785839e-05 5.58035681e-05 5.58035681e-05
      5.58035681e-05 1.80484694e-05 1.80484694e-05 1.80484694e-05
      -4.57397792e-20 -4.57397792e-20 -4.57397792e-20 -3.30589933e-06
      -3.30589933e-06 -3.30589933e-06 -4.15413851e-05 -4.15413851e-05
      -4.15413851e-05 -8.54689424e-05 -8.54689424e-05 -8.54689424e-05
      -5.69243566e-05 -5.69243566e-05 -5.69243566e-05 -2.33338469e-05
      -2.33338469e-05 -2.33338469e-05 -1.04264818e-05 -1.04264818e-05
      -1.04264818e-05 0. 0. 0. 2.27036471e-05 2.27036471e-05
      2.27036471e-05 6.52548842e-05 6.52548842e-05 6.52548842e-05
      8.40083667e-05 8.40083667e-05 8.40083667e-05 7.03709375e-05
      7.03709375e-05 7.03709375e-05 -4.03724272e-07 -4.03724272e-07
      -4.03724272e-07 -2.14484808e-05 -2.14484808e-05 -2.14484808e-05
      -7.66384110e-05 -7.66384110e-05 -7.66384110e-05 -2.96775088e-05
      -2.96775088e-05 -2.96775088e-05 1.06748175e-07 1.06748175e-07
      1.06748175e-07 8.63517300e-07 8.63517300e-07 8.63517300e-07
      -2.72645207e-06 -2.72645207e-06 -2.72645207e-06 -5.07650611e-06
      -5.07650611e-06 -5.07650611e-06 -6.17447222e-06 -6.17447222e-06
      -6.17447222e-06 3.92958918e-06 3.92958918e-06 3.92958918e-06
      6.08114133e-05 6.08114133e-05 6.08114133e-05 5.00358110e-05
      5.00358110e-05 5.00358110e-05 -3.59192541e-06 -3.59192541e-06
      -3.59192541e-06 -2.84046200e-05 -2.84046200e-05 -2.84046200e-05
      -1.58833318e-05 -1.58833318e-05 -1.58833318e-05 6.78575248e-07
      6.78575248e-07 6.78575248e-07 1.83765133e-05 1.83765133e-05
      1.83765133e-05 4.05669780e-05 4.05669780e-05 4.05669780e-05
      1.36980634e-05 1.36980634e-05 1.36980634e-05 -1.85806020e-05
      -1.85806020e-05 -1.85806020e-05 -6.06123285e-05 -6.06123285e-05
      -6.06123285e-05 -5.85568851e-05 -5.85568851e-05 -5.85568851e-05
      -9.85705083e-06 -9.85705083e-06 -9.85705083e-06 -5.86449175e-07
      -5.86449175e-07 -5.86449175e-07 -8.69172163e-06 -8.69172163e-06
      -8.69172163e-06 -3.82793587e-05 -3.82793587e-05 -3.82793587e-05
      6.30105603e-07 6.30105603e-07 6.30105603e-07 8.59074044e-06
      8.59074044e-06 8.59074044e-06 5.03733536e-05 5.03733536e-05
      5.03733536e-05 3.05019166e-05 3.05019166e-05 3.05019166e-05
      8.57505074e-06 8.57505074e-06 8.57505074e-06 -2.26549437e-05
      -2.26549437e-05 -2.26549437e-05 -7.65954392e-05 -7.65954392e-05
      -7.65954392e-05 -1.16916548e-04 -1.16916548e-04 -1.16916548e-04
      -7.80370901e-05 -7.80370901e-05 -7.80370901e-05 -3.83364131e-05
      -3.83364131e-05 -3.83364131e-05 6.44200372e-06 6.44200372e-06
      6.44200372e-06 -3.17644772e-05 -3.17644772e-05 -3.17644772e-05
      8.23670746e-07 8.23670746e-07 8.23670746e-07 1.53034216e-05
      1.53034216e-05 1.53034216e-05 2.03183408e-05 2.03183408e-05
      2.03183408e-05 -4.57397792e-20 -4.57397792e-20 -4.57397792e-20
      -4.57397792e-20 -4.57397792e-20 -4.57397792e-20 -8.96389702e-06
      -8.96389702e-06 -8.96389702e-06 -5.78002691e-05 -5.78002691e-05
      -5.78002691e-05 -1.16423958e-04 -1.16423958e-04 -1.16423958e-04
      -1.13152535e-04 -1.13152535e-04 -1.13152535e-04 -4.07261869e-05
      -4.07261869e-05 -4.07261869e-05 2.45080884e-07 2.45080884e-07
      2.45080884e-07 -1.39344575e-05 -1.39344575e-05 -1.39344575e-05
      1.89041293e-06 1.89041293e-06 1.89041293e-06 6.75783349e-06
      6.75783349e-06 6.75783349e-06 1.51392787e-05 1.51392787e-05
      1.51392787e-05 3.01743476e-05 3.01743476e-05 3.01743476e-05
      3.64323714e-05 3.64323714e-05 3.64323714e-05 3.64384905e-05
      3.64384905e-05 3.64384905e-05 -2.01528819e-05 -2.01528819e-05
      -2.01528819e-05 -1.06478576e-04 -1.06478576e-04 -1.06478576e-04
      -1.22436526e-04 -1.22436526e-04 -1.22436526e-04 -5.94221638e-05
      -5.94221638e-05 -5.94221638e-05 1.15359086e-07 1.15359086e-07
      1.15359086e-07 0. 0. 0. 1.89041293e-06 1.89041293e-06
      1.89041293e-06 3.67091488e-05 3.67091488e-05 3.67091488e-05
      7.64912184e-05 7.64912184e-05 7.64912184e-05 8.91935706e-05
      8.91935706e-05 8.91935706e-05 9.93315698e-05 9.93315698e-05
      9.93315698e-05 9.86879531e-05 9.86879531e-05 9.86879531e-05
      4.98230365e-05 4.98230365e-05 4.98230365e-05 -4.69265469e-05
      -4.69265469e-05 -4.69265469e-05 -1.00984726e-04 -1.00984726e-04
      -1.00984726e-04 -7.06304709e-05 -7.06304709e-05 -7.06304709e-05
      1.70088479e-05 1.70088479e-05 1.70088479e-05 0. 0. 0.
      4.09692802e-06 4.09692802e-06 4.09692802e-06 6.18791964e-05
      6.18791964e-05 6.18791964e-05 1.17382544e-04 1.17382544e-04
      1.17382544e-04 1.04913372e-04 1.04913372e-04 1.04913372e-04
      9.77480231e-05 9.77480231e-05 9.77480231e-05 1.08058615e-04
      1.08058615e-04 1.08058615e-04 7.55494548e-05 7.55494548e-05
      7.55494548e-05 9.41913095e-06 9.41913095e-06 9.41913095e-06
      -5.92696961e-05 -5.92696961e-05 -5.92696961e-05 -5.04614254e-05
      -5.04614254e-05 -5.04614254e-05 2.00551567e-05 2.00551567e-05
      2.00551567e-05 0. 0. 0. 4.09692802e-06 4.09692802e-06
      4.09692802e-06 4.79353839e-05 4.79353839e-05 4.79353839e-05
      6.41693841e-05 6.41693841e-05 6.41693841e-05 3.46253619e-05
      3.46253619e-05 3.46253619e-05 2.77792187e-05 2.77792187e-05
      2.77792187e-05 6.41560255e-05 6.41560255e-05 6.41560255e-05
      7.19303862e-05 7.19303862e-05 7.19303862e-05 1.31407514e-05
      1.31407514e-05 1.31407514e-05 -4.10038228e-05 -4.10038228e-05
      -4.10038228e-05 -4.18967138e-05 -4.18967138e-05 -4.18967138e-05
      1.08891745e-05 1.08891745e-05 1.08891745e-05 0. 0. 0.
      -4.72828697e-06 -4.72828697e-06 -4.72828697e-06 5.77295532e-06
      5.77295532e-06 5.77295532e-06 1.32740797e-05 1.32740797e-05
      1.32740797e-05 -4.57397792e-20 -4.57397792e-20 -4.57397792e-20
      2.39403647e-07 2.39403647e-07 2.39403647e-07 2.30506885e-05
      2.30506885e-05 2.30506885e-05 3.63104082e-05 3.63104082e-05
      3.63104082e-05 1.02640543e-05 1.02640543e-05 1.02640543e-05
      -1.41491682e-05 -1.41491682e-05 -1.41491682e-05 -2.80112545e-05
      -2.80112545e-05 -2.80112545e-05 4.10617358e-05 4.10617358e-05
      4.10617358e-05 0. 0. 0. -1.27125359e-05 -1.27125359e-05
      -1.27125359e-05 -1.66102855e-05 -1.66102855e-05 -1.66102855e-05
      -4.57397792e-20 -4.57397792e-20 -4.57397792e-20 -4.57397792e-20
      -4.57397792e-20 -4.57397792e-20 -4.57397792e-20 -4.57397792e-20
      -4.57397792e-20 1.70242583e-06 1.70242583e-06 1.70242583e-06
      -4.26320776e-06 -4.26320776e-06 -4.26320776e-06 -2.21875189e-06
      -2.21875189e-06 -2.21875189e-06 -1.83542795e-06 -1.83542795e-06
      -1.83542795e-06 -1.31614397e-05 -1.31614397e-05 -1.31614397e-05
      2.64439950e-05 2.64439950e-05 2.64439950e-05 0. 0. 0.
      -8.42344525e-06 -8.42344525e-06 -8.42344525e-06 -2.99734802e-05
      -2.99734802e-05 -2.99734802e-05 -1.41699293e-05 -1.41699293e-05
      -1.41699293e-05 -4.57397792e-20 -4.57397792e-20 -4.57397792e-20
      -4.57397792e-20 -4.57397792e-20 -4.57397792e-20 6.36596405e-06
      6.36596405e-06 6.36596405e-06 -5.27100212e-07 -5.27100212e-07
      -5.27100212e-07 -4.07018342e-06 -4.07018342e-06 -4.07018342e-06 0.
      0. 0. 1.00736961e-05 1.00736961e-05 1.00736961e-05 1.93956766e-05
      1.93956766e-05 1.93956766e-05 2.17480938e-05 2.17480938e-05
      2.17480938e-05 -6.61769150e-07 -6.61769150e-07 -6.61769150e-07
      -3.11451856e-07 -3.11451856e-07 -3.11451856e-07 -1.00573752e-05
      -1.00573752e-05 -1.00573752e-05 -4.57397792e-20 -4.57397792e-20
      -4.57397792e-20 -4.57397792e-20 -4.57397792e-20 -4.57397792e-20
      1.77831339e-06 1.77831339e-06 1.77831339e-06 -7.25523432e-06
      -7.25523432e-06 -7.25523432e-06 -5.43412034e-06 -5.43412034e-06
      -5.43412034e-06 -1.82037493e-05 -1.82037493e-05 -1.82037493e-05
      2.41844082e-05 2.41844082e-05 2.41844082e-05 1.75895202e-05
      1.75895202e-05 1.75895202e-05 1.98407888e-05 1.98407888e-05
      1.98407888e-05 0. 0. 0. -1.64253197e-06 -1.64253197e-06
      -1.64253197e-06 -1.62783226e-06 -1.62783226e-06 -1.62783226e-06
      -2.15194723e-06 -2.15194723e-06 -2.15194723e-06 -1.68804979e-06
      -1.68804979e-06 -1.68804979e-06 -1.64334324e-05 -1.64334324e-05
      -1.64334324e-05 -1.04811234e-05 -1.04811234e-05 -1.04811234e-05
      -9.27966880e-07 -9.27966880e-07 -9.27966880e-07 9.50799460e-07
      9.50799460e-07 9.50799460e-07 3.55560610e-06 3.55560610e-06
      3.55560610e-06 1.47234641e-06 1.47234641e-06 1.47234641e-06
      1.24763783e-05 1.24763783e-05 1.24763783e-05 3.79759558e-06
      3.79759558e-06 3.79759558e-06 -2.89860395e-07 -2.89860395e-07
      -2.89860395e-07 -5.45393959e-07 -5.45393959e-07 -5.45393959e-07
      -2.47932917e-06 -2.47932917e-06 -2.47932917e-06 -4.09488939e-06
      -4.09488939e-06 -4.09488939e-06 -4.04003367e-06 -4.04003367e-06
      -4.04003367e-06 -9.74437512e-07 -9.74437512e-07 -9.74437512e-07 0.
      0. 0. 1.86694670e-05 1.86694670e-05 1.86694670e-05 -2.55698956e-06
      -2.55698956e-06 -2.55698956e-06 8.26411739e-09 8.26411739e-09
      8.26411739e-09 -1.92244059e-07 -1.92244059e-07 -1.92244059e-07
      -5.48812341e-06 -5.48812341e-06 -5.48812341e-06 -8.71343491e-06
      -8.71343491e-06 -8.71343491e-06 0. 0. 0. 0. 0. 0. 0. 0. 0. 0. 0.
      0. -3.17955778e-06 -3.17955778e-06 -3.17955778e-06 -3.74036017e-06
      -3.74036017e-06 -3.74036017e-06 1.81204030e-06 1.81204030e-06
      1.81204030e-06 6.81373109e-08 6.81373109e-08 6.81373109e-08
      -4.57397792e-20 -4.57397792e-20 -4.57397792e-20 -1.09043235e-07
      -1.09043235e-07 -1.09043235e-07 -3.79556400e-06 -3.79556400e-06
      -3.79556400e-06 -1.29562375e-06 -1.29562375e-06 -1.29562375e-06
      -1.46379371e-05 -1.46379371e-05 -1.46379371e-05 1.30475210e-05
      1.30475210e-05 1.30475210e-05 -5.83535257e-06 -5.83535257e-06
      -5.83535257e-06 -1.18406961e-05 -1.18406961e-05 -1.18406961e-05
      -2.98328860e-06 -2.98328860e-06 -2.98328860e-06 -2.04312964e-05
      -2.04312964e-05 -2.04312964e-05 -2.82744872e-06 -2.82744872e-06
      -2.82744872e-06 -4.57397792e-20 -4.57397792e-20 -4.57397792e-20</_>
    <_>
      4.62273874e-06 4.62273874e-06 4.62273874e-06 4.86178142e-05
      4.86178142e-05 4.86178142e-05 2.85809165e-05 2.85809165e-05
      2.85809165e-05 -4.97739984e-06 -4.97739984e-06 -4.97739984e-06
      -1.24769467e-05 -1.24769467e-05 -1.24769467e-05 -1.18140360e-05
      -1.18140360e-05 -1.18140360e-05 -1.23257742e-05 -1.23257742e-05
      -1.23257742e-05 -3.51990320e-06 -3.51990320e-06 -3.51990320e-06
      1.23327127e-05 1.23327127e-05 1.23327127e-05 2.42685383e-05
      2.42685383e-05 2.42685383e-05 3.54792173e-05 3.54792173e-05
      3.54792173e-05 3.20371910e-05 3.20371910e-05 3.20371910e-05
      2.18582009e-05 2.18582009e-05 2.18582009e-05 4.23382044e-05
      4.23382044e-05 4.23382044e-05 9.58652981e-06 9.58652981e-06
      9.58652981e-06 1.29392049e-06 1.29392049e-06 1.29392049e-06 0. 0.
      0. 0. 0. 0. 0. 0. 0. 0. 0. 0. 1.29392049e-06 1.29392049e-06
      1.29392049e-06 2.19039393e-05 2.19039393e-05 2.19039393e-05
      4.81987445e-05 4.81987445e-05 4.81987445e-05 4.14871465e-05
      4.14871465e-05 4.14871465e-05 3.81792779e-05 3.81792779e-05
      3.81792779e-05 1.94144159e-05 1.94144159e-05 1.94144159e-05 0. 0.
      0. 5.19595289e-07 5.19595289e-07 5.19595289e-07 3.65223104e-06
      3.65223104e-06 3.65223104e-06 6.05158357e-06 6.05158357e-06
      6.05158357e-06 1.39721772e-06 1.39721772e-06 1.39721772e-06
      -1.51818540e-07 -1.51818540e-07 -1.51818540e-07 -6.81803499e-07
      -6.81803499e-07 -6.81803499e-07 0. 0. 0. 3.87682412e-05
      3.87682412e-05 3.87682412e-05 5.05119206e-05 5.05119206e-05
      5.05119206e-05 -5.04953505e-06 -5.04953505e-06 -5.04953505e-06
      7.55299288e-06 7.55299288e-06 7.55299288e-06 -1.92941843e-06
      -1.92941843e-06 -1.92941843e-06 -4.78521679e-06 -4.78521679e-06
      -4.78521679e-06 2.02149095e-05 2.02149095e-05 2.02149095e-05
      2.66194293e-05 2.66194293e-05 2.66194293e-05 1.82392050e-05
      1.82392050e-05 1.82392050e-05 3.75979835e-06 3.75979835e-06
      3.75979835e-06 -4.61548007e-06 -4.61548007e-06 -4.61548007e-06 0.
      0. 0. 2.37214499e-05 2.37214499e-05 2.37214499e-05 4.74258741e-05
      4.74258741e-05 4.74258741e-05 -1.10770197e-05 -1.10770197e-05
      -1.10770197e-05 -1.01857031e-05 -1.01857031e-05 -1.01857031e-05
      -9.11672032e-06 -9.11672032e-06 -9.11672032e-06 -1.54279460e-05
      -1.54279460e-05 -1.54279460e-05 -1.28401200e-06 -1.28401200e-06
      -1.28401200e-06 -1.60936260e-20 -1.60936260e-20 -1.60936260e-20
      -1.60936260e-20 -1.60936260e-20 -1.60936260e-20 -1.21350422e-05
      -1.21350422e-05 -1.21350422e-05 -4.29804641e-06 -4.29804641e-06
      -4.29804641e-06 0. 0. 0. 1.43713460e-05 1.43713460e-05
      1.43713460e-05 3.11251206e-05 3.11251206e-05 3.11251206e-05
      -2.13298281e-05 -2.13298281e-05 -2.13298281e-05 -4.39293290e-05
      -4.39293290e-05 -4.39293290e-05 -2.66785028e-05 -2.66785028e-05
      -2.66785028e-05 -1.24749577e-05 -1.24749577e-05 -1.24749577e-05
      -1.60936260e-20 -1.60936260e-20 -1.60936260e-20 -1.60936260e-20
      -1.60936260e-20 -1.60936260e-20 -1.60936260e-20 -1.60936260e-20
      -1.60936260e-20 -5.10629945e-07 -5.10629945e-07 -5.10629945e-07
      4.21244022e-06 4.21244022e-06 4.21244022e-06 0. 0. 0.
      -1.45854824e-06 -1.45854824e-06 -1.45854824e-06 5.07896630e-06
      5.07896630e-06 5.07896630e-06 -2.71698736e-05 -2.71698736e-05
      -2.71698736e-05 -5.35604922e-05 -5.35604922e-05 -5.35604922e-05
      -4.59681141e-05 -4.59681141e-05 -4.59681141e-05 -1.19547240e-05
      -1.19547240e-05 -1.19547240e-05 -1.60936260e-20 -1.60936260e-20
      -1.60936260e-20 -1.60936260e-20 -1.60936260e-20 -1.60936260e-20
      4.48671855e-08 4.48671855e-08 4.48671855e-08 8.60580712e-06
      8.60580712e-06 8.60580712e-06 1.20964114e-05 1.20964114e-05
      1.20964114e-05 0. 0. 0. -2.34676850e-06 -2.34676850e-06
      -2.34676850e-06 -1.95979865e-05 -1.95979865e-05 -1.95979865e-05
      -4.01527177e-05 -4.01527177e-05 -4.01527177e-05 -5.34090650e-05
      -5.34090650e-05 -5.34090650e-05 -4.56203925e-05 -4.56203925e-05
      -4.56203925e-05 -1.19547240e-05 -1.19547240e-05 -1.19547240e-05
      -1.60936260e-20 -1.60936260e-20 -1.60936260e-20 -1.60936260e-20
      -1.60936260e-20 -1.60936260e-20 1.77881489e-07 1.77881489e-07
      1.77881489e-07 2.08536549e-05 2.08536549e-05 2.08536549e-05
      1.89355233e-05 1.89355233e-05 1.89355233e-05 -2.07170014e-08
      -2.07170014e-08 -2.07170014e-08 -5.14226258e-06 -5.14226258e-06
      -5.14226258e-06 -2.63499915e-05 -2.63499915e-05 -2.63499915e-05
      -3.68205838e-05 -3.68205838e-05 -3.68205838e-05 -5.32015547e-05
      -5.32015547e-05 -5.32015547e-05 -4.82095784e-05 -4.82095784e-05
      -4.82095784e-05 -1.19547240e-05 -1.19547240e-05 -1.19547240e-05
      -1.60936260e-20 -1.60936260e-20 -1.60936260e-20 -1.60936260e-20
      -1.60936260e-20 -1.60936260e-20 1.21314088e-06 1.21314088e-06
      1.21314088e-06 3.61127095e-05 3.61127095e-05 3.61127095e-05
      2.31829272e-05 2.31829272e-05 2.31829272e-05 -1.28083991e-06
      -1.28083991e-06 -1.28083991e-06 -3.12461125e-05 -3.12461125e-05
      -3.12461125e-05 -3.31603005e-05 -3.31603005e-05 -3.31603005e-05
      -3.31572191e-05 -3.31572191e-05 -3.31572191e-05 -5.32015547e-05
      -5.32015547e-05 -5.32015547e-05 -4.82095784e-05 -4.82095784e-05
      -4.82095784e-05 -1.19547240e-05 -1.19547240e-05 -1.19547240e-05
      -1.60936260e-20 -1.60936260e-20 -1.60936260e-20 -1.60936260e-20
      -1.60936260e-20 -1.60936260e-20 1.97384488e-05 1.97384488e-05
      1.97384488e-05 4.80188974e-05 4.80188974e-05 4.80188974e-05
      2.27945384e-05 2.27945384e-05 2.27945384e-05 -2.91559354e-06
      -2.91559354e-06 -2.91559354e-06 -4.68826875e-05 -4.68826875e-05
      -4.68826875e-05 -2.38292832e-05 -2.38292832e-05 -2.38292832e-05
      -3.21593288e-05 -3.21593288e-05 -3.21593288e-05 -5.10692807e-05
      -5.10692807e-05 -5.10692807e-05 -3.41662162e-05 -3.41662162e-05
      -3.41662162e-05 -1.19547240e-05 -1.19547240e-05 -1.19547240e-05
      -1.60936260e-20 -1.60936260e-20 -1.60936260e-20 1.15956971e-06
      1.15956971e-06 1.15956971e-06 2.96371618e-05 2.96371618e-05
      2.96371618e-05 5.35604922e-05 5.35604922e-05 5.35604922e-05
      2.25141193e-05 2.25141193e-05 2.25141193e-05 -1.66146419e-05
      -1.66146419e-05 -1.66146419e-05 -4.96198008e-05 -4.96198008e-05
      -4.96198008e-05 -2.42481910e-05 -2.42481910e-05 -2.42481910e-05
      -2.63078473e-05 -2.63078473e-05 -2.63078473e-05 -3.21329899e-05
      -3.21329899e-05 -3.21329899e-05 -2.42811038e-05 -2.42811038e-05
      -2.42811038e-05 -1.71136435e-05 -1.71136435e-05 -1.71136435e-05
      -2.06610798e-06 -2.06610798e-06 -2.06610798e-06 7.61913361e-06
      7.61913361e-06 7.61913361e-06 3.63419822e-05 3.63419822e-05
      3.63419822e-05 5.35604922e-05 5.35604922e-05 5.35604922e-05
      2.20599904e-05 2.20599904e-05 2.20599904e-05 -3.29546783e-05
      -3.29546783e-05 -3.29546783e-05 -5.20827343e-05 -5.20827343e-05
      -5.20827343e-05 -2.19395788e-05 -2.19395788e-05 -2.19395788e-05
      -2.60949346e-05 -2.60949346e-05 -2.60949346e-05 -3.72528084e-05
      -3.72528084e-05 -3.72528084e-05 -4.18040363e-05 -4.18040363e-05
      -4.18040363e-05 -2.22924809e-05 -2.22924809e-05 -2.22924809e-05
      -3.86481770e-06 -3.86481770e-06 -3.86481770e-06 9.60911893e-06
      9.60911893e-06 9.60911893e-06 3.91523427e-05 3.91523427e-05
      3.91523427e-05 4.34650319e-05 4.34650319e-05 4.34650319e-05
      1.46157663e-05 1.46157663e-05 1.46157663e-05 -4.28799576e-05
      -4.28799576e-05 -4.28799576e-05 -4.15074283e-05 -4.15074283e-05
      -4.15074283e-05 -9.38882931e-06 -9.38882931e-06 -9.38882931e-06
      -1.09745406e-05 -1.09745406e-05 -1.09745406e-05 -4.39354517e-05
      -4.39354517e-05 -4.39354517e-05 -5.25495889e-05 -5.25495889e-05
      -5.25495889e-05 -3.96039286e-05 -3.96039286e-05 -3.96039286e-05
      -8.38147571e-06 -8.38147571e-06 -8.38147571e-06 2.38010034e-05
      2.38010034e-05 2.38010034e-05 4.13892230e-05 4.13892230e-05
      4.13892230e-05 2.73782716e-05 2.73782716e-05 2.73782716e-05
      -7.04677404e-06 -7.04677404e-06 -7.04677404e-06 -4.54683031e-05
      -4.54683031e-05 -4.54683031e-05 -2.81155244e-05 -2.81155244e-05
      -2.81155244e-05 -1.58138050e-06 -1.58138050e-06 -1.58138050e-06
      -4.33524974e-06 -4.33524974e-06 -4.33524974e-06 -3.49887086e-05
      -3.49887086e-05 -3.49887086e-05 -5.35604922e-05 -5.35604922e-05
      -5.35604922e-05 -5.22563023e-05 -5.22563023e-05 -5.22563023e-05
      -3.09935822e-05 -3.09935822e-05 -3.09935822e-05 9.28882491e-06
      9.28882491e-06 9.28882491e-06 8.61501030e-06 8.61501030e-06
      8.61501030e-06 4.47487673e-06 4.47487673e-06 4.47487673e-06
      -3.23162822e-05 -3.23162822e-05 -3.23162822e-05 -5.22058799e-05
      -5.22058799e-05 -5.22058799e-05 -1.55323705e-05 -1.55323705e-05
      -1.55323705e-05 -2.31299126e-07 -2.31299126e-07 -2.31299126e-07
      1.16452884e-06 1.16452884e-06 1.16452884e-06 -1.19440419e-05
      -1.19440419e-05 -1.19440419e-05 -4.43724020e-05 -4.43724020e-05
      -4.43724020e-05 -5.04296549e-05 -5.04296549e-05 -5.04296549e-05
      -2.71581939e-05 -2.71581939e-05 -2.71581939e-05 -3.49216435e-07
      -3.49216435e-07 -3.49216435e-07 0. 0. 0. -7.26246583e-07
      -7.26246583e-07 -7.26246583e-07 -3.74812407e-05 -3.74812407e-05
      -3.74812407e-05 -4.81820207e-05 -4.81820207e-05 -4.81820207e-05
      -7.92744140e-06 -7.92744140e-06 -7.92744140e-06 -1.60936260e-20
      -1.60936260e-20 -1.60936260e-20 1.56273336e-06 1.56273336e-06
      1.56273336e-06 -4.30367351e-07 -4.30367351e-07 -4.30367351e-07
      -1.27170806e-05 -1.27170806e-05 -1.27170806e-05 -3.96885989e-05
      -3.96885989e-05 -3.96885989e-05 -2.46071395e-05 -2.46071395e-05
      -2.46071395e-05 -3.49216435e-07 -3.49216435e-07 -3.49216435e-07 0.
      0. 0. -9.37884579e-06 -9.37884579e-06 -9.37884579e-06
      -2.31234826e-05 -2.31234826e-05 -2.31234826e-05 -8.09183075e-06
      -8.09183075e-06 -8.09183075e-06 -5.35642357e-07 -5.35642357e-07
      -5.35642357e-07 -1.60936260e-20 -1.60936260e-20 -1.60936260e-20
      4.67484362e-08 4.67484362e-08 4.67484362e-08 -1.60936260e-20
      -1.60936260e-20 -1.60936260e-20 -4.12136978e-06 -4.12136978e-06
      -4.12136978e-06 -2.24853065e-05 -2.24853065e-05 -2.24853065e-05
      -1.43863681e-05 -1.43863681e-05 -1.43863681e-05 -3.30488228e-06
      -3.30488228e-06 -3.30488228e-06 -2.05591164e-06 -2.05591164e-06
      -2.05591164e-06 -5.03381989e-06 -5.03381989e-06 -5.03381989e-06
      -3.93211667e-06 -3.93211667e-06 -3.93211667e-06 -1.53521654e-07
      -1.53521654e-07 -1.53521654e-07 -1.60936260e-20 -1.60936260e-20
      -1.60936260e-20 -1.60936260e-20 -1.60936260e-20 -1.60936260e-20</_>
    <_>
      -3.38813179e-20 -3.38813179e-20 -3.38813179e-20 1.51608185e-06
      1.51608185e-06 1.51608185e-06 -3.25476867e-06 -3.25476867e-06
      -3.25476867e-06 -2.70866826e-06 -2.70866826e-06 -2.70866826e-06
      -5.53717618e-05 -5.53717618e-05 -5.53717618e-05 -3.20602085e-05
      -3.20602085e-05 -3.20602085e-05 -2.95992268e-05 -2.95992268e-05
      -2.95992268e-05 -4.10599168e-05 -4.10599168e-05 -4.10599168e-05
      -2.31374452e-05 -2.31374452e-05 -2.31374452e-05 -3.77187098e-05
      -3.77187098e-05 -3.77187098e-05 -3.97582335e-06 -3.97582335e-06
      -3.97582335e-06 -3.38813179e-20 -3.38813179e-20 -3.38813179e-20
      5.02802777e-06 5.02802777e-06 5.02802777e-06 7.70989354e-05
      7.70989354e-05 7.70989354e-05 5.14657841e-05 5.14657841e-05
      5.14657841e-05 0. 0. 0. 0. 0. 0. 0. 0. 0. 0. 0. 0. 0. 0. 0. 0. 0.
      0. 9.81271342e-07 9.81271342e-07 9.81271342e-07 4.27899831e-05
      4.27899831e-05 4.27899831e-05 1.99771853e-06 1.99771853e-06
      1.99771853e-06 1.88613540e-05 1.88613540e-05 1.88613540e-05
      3.36811390e-05 3.36811390e-05 3.36811390e-05 0. 0. 0.
      -8.07545860e-07 -8.07545860e-07 -8.07545860e-07 -3.84052191e-06
      -3.84052191e-06 -3.84052191e-06 -1.10582494e-06 -1.10582494e-06
      -1.10582494e-06 -2.81325379e-06 -2.81325379e-06 -2.81325379e-06
      4.54674876e-07 4.54674876e-07 4.54674876e-07 5.10910141e-08
      5.10910141e-08 5.10910141e-08 0. 0. 0. 2.80230124e-05
      2.80230124e-05 2.80230124e-05 7.42161001e-06 7.42161001e-06
      7.42161001e-06 2.05521101e-05 2.05521101e-05 2.05521101e-05
      5.29011668e-05 5.29011668e-05 5.29011668e-05 -8.07545860e-07
      -8.07545860e-07 -8.07545860e-07 -1.11534673e-05 -1.11534673e-05
      -1.11534673e-05 -1.95711782e-05 -1.95711782e-05 -1.95711782e-05
      -8.41212841e-06 -8.41212841e-06 -8.41212841e-06 -1.39617077e-06
      -1.39617077e-06 -1.39617077e-06 -1.97189456e-06 -1.97189456e-06
      -1.97189456e-06 -1.10726760e-05 -1.10726760e-05 -1.10726760e-05
      -1.85399119e-06 -1.85399119e-06 -1.85399119e-06 4.78458569e-05
      4.78458569e-05 4.78458569e-05 4.47341408e-05 4.47341408e-05
      4.47341408e-05 6.36489349e-05 6.36489349e-05 6.36489349e-05
      1.63154564e-05 1.63154564e-05 1.63154564e-05 -7.11349503e-06
      -7.11349503e-06 -7.11349503e-06 -4.12596528e-05 -4.12596528e-05
      -4.12596528e-05 -2.60534089e-05 -2.60534089e-05 -2.60534089e-05
      -3.38813179e-20 -3.38813179e-20 -3.38813179e-20 -3.38813179e-20
      -3.38813179e-20 -3.38813179e-20 -4.04575912e-05 -4.04575912e-05
      -4.04575912e-05 -4.91559149e-05 -4.91559149e-05 -4.91559149e-05
      -1.00665229e-05 -1.00665229e-05 -1.00665229e-05 2.04688276e-05
      2.04688276e-05 2.04688276e-05 4.76482783e-05 4.76482783e-05
      4.76482783e-05 6.68423090e-05 6.68423090e-05 6.68423090e-05 0. 0.
      0. -8.01724491e-06 -8.01724491e-06 -8.01724491e-06 -1.60866384e-05
      -1.60866384e-05 -1.60866384e-05 -3.38813179e-20 -3.38813179e-20
      -3.38813179e-20 -3.38813179e-20 -3.38813179e-20 -3.38813179e-20
      -3.38813179e-20 -3.38813179e-20 -3.38813179e-20 -6.69380961e-06
      -6.69380961e-06 -6.69380961e-06 -2.54837541e-05 -2.54837541e-05
      -2.54837541e-05 -1.06579300e-05 -1.06579300e-05 -1.06579300e-05 0.
      0. 0. 2.68100848e-05 2.68100848e-05 2.68100848e-05 -2.79432370e-05
      -2.79432370e-05 -2.79432370e-05 -1.45724098e-05 -1.45724098e-05
      -1.45724098e-05 3.31286719e-06 3.31286719e-06 3.31286719e-06
      1.32621990e-05 1.32621990e-05 1.32621990e-05 1.06520110e-06
      1.06520110e-06 1.06520110e-06 -3.38813179e-20 -3.38813179e-20
      -3.38813179e-20 -3.38813179e-20 -3.38813179e-20 -3.38813179e-20
      4.68376584e-06 4.68376584e-06 4.68376584e-06 9.74489649e-06
      9.74489649e-06 9.74489649e-06 -1.90208846e-06 -1.90208846e-06
      -1.90208846e-06 -6.54112137e-06 -6.54112137e-06 -6.54112137e-06
      -3.87537984e-05 -3.87537984e-05 -3.87537984e-05 -1.13220856e-04
      -1.13220856e-04 -1.13220856e-04 -5.63916874e-05 -5.63916874e-05
      -5.63916874e-05 1.27755193e-05 1.27755193e-05 1.27755193e-05
      6.73779141e-05 6.73779141e-05 6.73779141e-05 6.54655450e-05
      6.54655450e-05 6.54655450e-05 4.73503533e-05 4.73503533e-05
      4.73503533e-05 4.62851531e-05 4.62851531e-05 4.62851531e-05
      7.05282582e-05 7.05282582e-05 7.05282582e-05 7.58109527e-05
      7.58109527e-05 7.58109527e-05 1.07898877e-05 1.07898877e-05
      1.07898877e-05 -3.98784941e-05 -3.98784941e-05 -3.98784941e-05
      -9.05577253e-05 -9.05577253e-05 -9.05577253e-05 -9.96141825e-05
      -9.96141825e-05 -9.96141825e-05 -8.13499573e-05 -8.13499573e-05
      -8.13499573e-05 1.02343847e-05 1.02343847e-05 1.02343847e-05
      1.03421393e-04 1.03421393e-04 1.03421393e-04 1.64245896e-04
      1.64245896e-04 1.64245896e-04 1.43118334e-04 1.43118334e-04
      1.43118334e-04 1.41777651e-04 1.41777651e-04 1.41777651e-04
      1.63327626e-04 1.63327626e-04 1.63327626e-04 9.64431238e-05
      9.64431238e-05 9.64431238e-05 1.45600043e-05 1.45600043e-05
      1.45600043e-05 -7.23781486e-05 -7.23781486e-05 -7.23781486e-05
      -9.06903442e-05 -9.06903442e-05 -9.06903442e-05 -1.16090610e-04
      -1.16090610e-04 -1.16090610e-04 -8.38293054e-05 -8.38293054e-05
      -8.38293054e-05 1.65255424e-05 1.65255424e-05 1.65255424e-05
      1.11552181e-04 1.11552181e-04 1.11552181e-04 1.62971046e-04
      1.62971046e-04 1.62971046e-04 1.29966473e-04 1.29966473e-04
      1.29966473e-04 1.17193376e-04 1.17193376e-04 1.17193376e-04
      1.54222347e-04 1.54222347e-04 1.54222347e-04 9.80538243e-05
      9.80538243e-05 9.80538243e-05 1.50297910e-05 1.50297910e-05
      1.50297910e-05 -7.45452853e-05 -7.45452853e-05 -7.45452853e-05
      -7.93067957e-05 -7.93067957e-05 -7.93067957e-05 -9.81695121e-05
      -9.81695121e-05 -9.81695121e-05 -3.49574220e-05 -3.49574220e-05
      -3.49574220e-05 1.45943604e-05 1.45943604e-05 1.45943604e-05
      7.62038835e-05 7.62038835e-05 7.62038835e-05 8.07211763e-05
      8.07211763e-05 8.07211763e-05 3.71346541e-05 3.71346541e-05
      3.71346541e-05 2.69819484e-05 2.69819484e-05 2.69819484e-05
      8.51190998e-05 8.51190998e-05 8.51190998e-05 8.91136879e-05
      8.91136879e-05 8.91136879e-05 1.16791261e-05 1.16791261e-05
      1.16791261e-05 -3.10883916e-05 -3.10883916e-05 -3.10883916e-05
      -5.96132704e-05 -5.96132704e-05 -5.96132704e-05 -1.28618140e-05
      -1.28618140e-05 -1.28618140e-05 0. 0. 0. 6.36490040e-06
      6.36490040e-06 6.36490040e-06 1.82449312e-05 1.82449312e-05
      1.82449312e-05 1.12185462e-05 1.12185462e-05 1.12185462e-05
      -3.38813179e-20 -3.38813179e-20 -3.38813179e-20 -3.38813179e-20
      -3.38813179e-20 -3.38813179e-20 1.83232587e-05 1.83232587e-05
      1.83232587e-05 1.72840246e-05 1.72840246e-05 1.72840246e-05
      -1.58168723e-06 -1.58168723e-06 -1.58168723e-06 0. 0. 0.
      -2.33292794e-05 -2.33292794e-05 -2.33292794e-05 5.95867823e-05
      5.95867823e-05 5.95867823e-05 0. 0. 0. -7.80126538e-06
      -7.80126538e-06 -7.80126538e-06 -1.53424626e-05 -1.53424626e-05
      -1.53424626e-05 -3.38813179e-20 -3.38813179e-20 -3.38813179e-20
      -3.38813179e-20 -3.38813179e-20 -3.38813179e-20 -3.38813179e-20
      -3.38813179e-20 -3.38813179e-20 -1.90941842e-06 -1.90941842e-06
      -1.90941842e-06 -1.75737568e-05 -1.75737568e-05 -1.75737568e-05
      -8.99375937e-06 -8.99375937e-06 -8.99375937e-06 0. 0. 0.
      3.43021165e-05 3.43021165e-05 3.43021165e-05 4.38008974e-05
      4.38008974e-05 4.38008974e-05 0. 0. 0. -8.66382106e-06
      -8.66382106e-06 -8.66382106e-06 -4.09555432e-05 -4.09555432e-05
      -4.09555432e-05 -2.68569947e-05 -2.68569947e-05 -2.68569947e-05
      -3.38813179e-20 -3.38813179e-20 -3.38813179e-20 -3.38813179e-20
      -3.38813179e-20 -3.38813179e-20 -1.34861612e-05 -1.34861612e-05
      -1.34861612e-05 -4.61064628e-05 -4.61064628e-05 -4.61064628e-05
      -1.02409258e-05 -1.02409258e-05 -1.02409258e-05 2.87272860e-06
      2.87272860e-06 2.87272860e-06 3.74164701e-05 3.74164701e-05
      3.74164701e-05 5.61089655e-05 5.61089655e-05 5.61089655e-05
      4.86796853e-05 4.86796853e-05 4.86796853e-05 -2.35163657e-06
      -2.35163657e-06 -2.35163657e-06 -2.01088860e-05 -2.01088860e-05
      -2.01088860e-05 -1.01160913e-05 -1.01160913e-05 -1.01160913e-05
      -7.88145280e-06 -7.88145280e-06 -7.88145280e-06 -3.22746746e-05
      -3.22746746e-05 -3.22746746e-05 -3.23956556e-05 -3.23956556e-05
      -3.23956556e-05 -1.37355391e-05 -1.37355391e-05 -1.37355391e-05
      -1.93339565e-06 -1.93339565e-06 -1.93339565e-06 2.43048671e-05
      2.43048671e-05 2.43048671e-05 1.25445167e-05 1.25445167e-05
      1.25445167e-05 2.24842624e-05 2.24842624e-05 2.24842624e-05
      9.99772237e-06 9.99772237e-06 9.99772237e-06 0. 0. 0.
      -2.35163657e-06 -2.35163657e-06 -2.35163657e-06 -4.39837731e-06
      -4.39837731e-06 -4.39837731e-06 -2.08628634e-07 -2.08628634e-07
      -2.08628634e-07 -1.26389195e-05 -1.26389195e-05 -1.26389195e-05
      -6.98034637e-06 -6.98034637e-06 -6.98034637e-06 -1.83655359e-07
      -1.83655359e-07 -1.83655359e-07 0. 0. 0. 2.98018294e-05
      2.98018294e-05 2.98018294e-05 6.49752792e-06 6.49752792e-06
      6.49752792e-06 1.88803267e-06 1.88803267e-06 1.88803267e-06
      -2.72481475e-06 -2.72481475e-06 -2.72481475e-06 8.42871486e-06
      8.42871486e-06 8.42871486e-06 0. 0. 0. 0. 0. 0. 0. 0. 0. 0. 0. 0.
      0. 0. 0. 0. 0. 0. 3.99562377e-05 3.99562377e-05 3.99562377e-05
      1.41736027e-05 1.41736027e-05 1.41736027e-05 7.08564585e-07
      7.08564585e-07 7.08564585e-07 7.12243953e-09 7.12243953e-09
      7.12243953e-09 -2.68595932e-06 -2.68595932e-06 -2.68595932e-06
      -2.35645948e-05 -2.35645948e-05 -2.35645948e-05 -3.67316807e-06
      -3.67316807e-06 -3.67316807e-06 -3.63235886e-05 -3.63235886e-05
      -3.63235886e-05 -2.27602104e-05 -2.27602104e-05 -2.27602104e-05
      -1.99687020e-05 -1.99687020e-05 -1.99687020e-05 -2.67782834e-05
      -2.67782834e-05 -2.67782834e-05 1.04821611e-05 1.04821611e-05
      1.04821611e-05 5.90586524e-06 5.90586524e-06 5.90586524e-06
      1.10977408e-06 1.10977408e-06 1.10977408e-06 -3.38813179e-20
      -3.38813179e-20 -3.38813179e-20</_>
    <_>
      3.39961230e-06 3.39961230e-06 3.39961230e-06 1.87623991e-05
      1.87623991e-05 1.87623991e-05 8.31376201e-06 8.31376201e-06
      8.31376201e-06 -2.00050017e-05 -2.00050017e-05 -2.00050017e-05
      -3.11800723e-05 -3.11800723e-05 -3.11800723e-05 -1.30083763e-05
      -1.30083763e-05 -1.30083763e-05 3.06337915e-06 3.06337915e-06
      3.06337915e-06 4.52324502e-06 4.52324502e-06 4.52324502e-06
      7.49625269e-06 7.49625269e-06 7.49625269e-06 -4.45810838e-06
      -4.45810838e-06 -4.45810838e-06 1.53196581e-07 1.53196581e-07
      1.53196581e-07 -7.36918664e-20 -7.36918664e-20 -7.36918664e-20
      1.90244900e-05 1.90244900e-05 1.90244900e-05 2.43861523e-05
      2.43861523e-05 2.43861523e-05 1.23215123e-05 1.23215123e-05
      1.23215123e-05 3.57136923e-06 3.57136923e-06 3.57136923e-06 0. 0.
      0. 0. 0. 0. 0. 0. 0. 0. 0. 0. 7.82145617e-06 7.82145617e-06
      7.82145617e-06 1.72895852e-05 1.72895852e-05 1.72895852e-05
      5.78269692e-06 5.78269692e-06 5.78269692e-06 -9.53411217e-08
      -9.53411217e-08 -9.53411217e-08 2.58731961e-05 2.58731961e-05
      2.58731961e-05 1.48137235e-06 1.48137235e-06 1.48137235e-06 0. 0.
      0. 3.41772228e-08 3.41772228e-08 3.41772228e-08 2.44600915e-06
      2.44600915e-06 2.44600915e-06 6.96305142e-06 6.96305142e-06
      6.96305142e-06 -9.81810899e-06 -9.81810899e-06 -9.81810899e-06
      -5.11019243e-06 -5.11019243e-06 -5.11019243e-06 -9.79349579e-09
      -9.79349579e-09 -9.79349579e-09 0. 0. 0. 2.88777301e-05
      2.88777301e-05 2.88777301e-05 2.85384613e-06 2.85384613e-06
      2.85384613e-06 -2.63912671e-06 -2.63912671e-06 -2.63912671e-06
      2.34569325e-05 2.34569325e-05 2.34569325e-05 3.41772228e-08
      3.41772228e-08 3.41772228e-08 1.62136712e-06 1.62136712e-06
      1.62136712e-06 -1.24703968e-06 -1.24703968e-06 -1.24703968e-06
      -6.75758929e-06 -6.75758929e-06 -6.75758929e-06 7.57859425e-06
      7.57859425e-06 7.57859425e-06 2.72461966e-06 2.72461966e-06
      2.72461966e-06 -5.97204507e-06 -5.97204507e-06 -5.97204507e-06
      1.72542940e-07 1.72542940e-07 1.72542940e-07 2.40184963e-05
      2.40184963e-05 2.40184963e-05 2.95098489e-05 2.95098489e-05
      2.95098489e-05 2.02343199e-05 2.02343199e-05 2.02343199e-05
      -3.64619336e-06 -3.64619336e-06 -3.64619336e-06 1.15466003e-06
      1.15466003e-06 1.15466003e-06 6.26901965e-06 6.26901965e-06
      6.26901965e-06 1.67400060e-06 1.67400060e-06 1.67400060e-06
      -7.36918664e-20 -7.36918664e-20 -7.36918664e-20 -7.36918664e-20
      -7.36918664e-20 -7.36918664e-20 -1.05007921e-05 -1.05007921e-05
      -1.05007921e-05 -2.71460085e-05 -2.71460085e-05 -2.71460085e-05
      -1.28483202e-06 -1.28483202e-06 -1.28483202e-06 3.35767800e-06
      3.35767800e-06 3.35767800e-06 4.90127823e-05 4.90127823e-05
      4.90127823e-05 1.95960019e-05 1.95960019e-05 1.95960019e-05
      -8.03895000e-06 -8.03895000e-06 -8.03895000e-06 -1.47950664e-06
      -1.47950664e-06 -1.47950664e-06 1.94011882e-05 1.94011882e-05
      1.94011882e-05 -3.22925047e-07 -3.22925047e-07 -3.22925047e-07
      -7.36918664e-20 -7.36918664e-20 -7.36918664e-20 -7.36918664e-20
      -7.36918664e-20 -7.36918664e-20 -1.22965082e-06 -1.22965082e-06
      -1.22965082e-06 -1.71147622e-05 -1.71147622e-05 -1.71147622e-05
      -9.53074868e-06 -9.53074868e-06 -9.53074868e-06 0. 0. 0.
      9.38734593e-06 9.38734593e-06 9.38734593e-06 -2.87459420e-06
      -2.87459420e-06 -2.87459420e-06 -8.99480801e-06 -8.99480801e-06
      -8.99480801e-06 -4.14285705e-06 -4.14285705e-06 -4.14285705e-06
      2.14552692e-05 2.14552692e-05 2.14552692e-05 3.78395816e-06
      3.78395816e-06 3.78395816e-06 -7.36918664e-20 -7.36918664e-20
      -7.36918664e-20 -7.36918664e-20 -7.36918664e-20 -7.36918664e-20
      -7.36918664e-20 -7.36918664e-20 -7.36918664e-20 -2.98647010e-05
      -2.98647010e-05 -2.98647010e-05 -7.73596093e-06 -7.73596093e-06
      -7.73596093e-06 0. 0. 0. 1.47748124e-05 1.47748124e-05
      1.47748124e-05 -4.61346754e-05 -4.61346754e-05 -4.61346754e-05
      -1.08243594e-05 -1.08243594e-05 -1.08243594e-05 2.41966563e-06
      2.41966563e-06 2.41966563e-06 4.14374917e-05 4.14374917e-05
      4.14374917e-05 1.99677361e-05 1.99677361e-05 1.99677361e-05
      -7.36918664e-20 -7.36918664e-20 -7.36918664e-20 -7.36918664e-20
      -7.36918664e-20 -7.36918664e-20 4.73153841e-06 4.73153841e-06
      4.73153841e-06 -1.05429062e-05 -1.05429062e-05 -1.05429062e-05
      1.94493077e-06 1.94493077e-06 1.94493077e-06 0. 0. 0.
      1.50711112e-05 1.50711112e-05 1.50711112e-05 -5.79987536e-05
      -5.79987536e-05 -5.79987536e-05 -2.66004554e-05 -2.66004554e-05
      -2.66004554e-05 5.16477348e-06 5.16477348e-06 5.16477348e-06
      6.87606080e-05 6.87606080e-05 6.87606080e-05 7.04256599e-05
      7.04256599e-05 7.04256599e-05 4.31039516e-05 4.31039516e-05
      4.31039516e-05 4.64378172e-05 4.64378172e-05 4.64378172e-05
      6.14313249e-05 6.14313249e-05 6.14313249e-05 4.13914895e-05
      4.13914895e-05 4.13914895e-05 4.40601889e-06 4.40601889e-06
      4.40601889e-06 0. 0. 0. -2.07439880e-05 -2.07439880e-05
      -2.07439880e-05 -5.74040787e-05 -5.74040787e-05 -5.74040787e-05
      -4.04137681e-05 -4.04137681e-05 -4.04137681e-05 1.99869319e-05
      1.99869319e-05 1.99869319e-05 7.65225559e-05 7.65225559e-05
      7.65225559e-05 1.27942578e-04 1.27942578e-04 1.27942578e-04
      1.06214538e-04 1.06214538e-04 1.06214538e-04 1.09548404e-04
      1.09548404e-04 1.09548404e-04 1.16382063e-04 1.16382063e-04
      1.16382063e-04 6.76546842e-05 6.76546842e-05 6.76546842e-05
      7.43732198e-06 7.43732198e-06 7.43732198e-06 -4.74529224e-06
      -4.74529224e-06 -4.74529224e-06 -2.80706681e-05 -2.80706681e-05
      -2.80706681e-05 -6.69443907e-05 -6.69443907e-05 -6.69443907e-05
      -9.44497660e-05 -9.44497660e-05 -9.44497660e-05 -1.88218291e-05
      -1.88218291e-05 -1.88218291e-05 5.22947594e-05 5.22947594e-05
      5.22947594e-05 9.71031768e-05 9.71031768e-05 9.71031768e-05
      9.45693901e-05 9.45693901e-05 9.45693901e-05 9.97780808e-05
      9.97780808e-05 9.97780808e-05 8.80550215e-05 8.80550215e-05
      8.80550215e-05 4.14838578e-05 4.14838578e-05 4.14838578e-05
      -2.80164727e-06 -2.80164727e-06 -2.80164727e-06 -1.43067018e-05
      -1.43067018e-05 -1.43067018e-05 -1.88118102e-05 -1.88118102e-05
      -1.88118102e-05 -5.70680750e-05 -5.70680750e-05 -5.70680750e-05
      -1.20642500e-04 -1.20642500e-04 -1.20642500e-04 -7.19381787e-05
      -7.19381787e-05 -7.19381787e-05 -2.53006401e-05 -2.53006401e-05
      -2.53006401e-05 2.93326611e-05 2.93326611e-05 2.93326611e-05
      3.16936639e-05 3.16936639e-05 3.16936639e-05 3.04148962e-05
      3.04148962e-05 3.04148962e-05 2.42440292e-05 2.42440292e-05
      2.42440292e-05 1.11067284e-05 1.11067284e-05 1.11067284e-05
      -1.03091243e-05 -1.03091243e-05 -1.03091243e-05 -1.80604402e-05
      -1.80604402e-05 -1.80604402e-05 -1.14929944e-05 -1.14929944e-05
      -1.14929944e-05 -3.71902715e-05 -3.71902715e-05 -3.71902715e-05
      -9.47686203e-05 -9.47686203e-05 -9.47686203e-05 -1.07124943e-04
      -1.07124943e-04 -1.07124943e-04 -6.37253543e-05 -6.37253543e-05
      -6.37253543e-05 -6.46476838e-06 -6.46476838e-06 -6.46476838e-06
      -7.36918664e-20 -7.36918664e-20 -7.36918664e-20 -7.36918664e-20
      -7.36918664e-20 -7.36918664e-20 8.83569737e-06 8.83569737e-06
      8.83569737e-06 9.56031454e-06 9.56031454e-06 9.56031454e-06
      -1.49188254e-05 -1.49188254e-05 -1.49188254e-05 -1.75306941e-05
      -1.75306941e-05 -1.75306941e-05 -1.92440821e-05 -1.92440821e-05
      -1.92440821e-05 -3.55303455e-05 -3.55303455e-05 -3.55303455e-05
      -7.91808343e-05 -7.91808343e-05 -7.91808343e-05 -1.09100882e-04
      -1.09100882e-04 -1.09100882e-04 -7.33381385e-05 -7.33381385e-05
      -7.33381385e-05 -3.16533115e-05 -3.16533115e-05 -3.16533115e-05
      -7.36918664e-20 -7.36918664e-20 -7.36918664e-20 2.43956347e-05
      2.43956347e-05 2.43956347e-05 1.81247797e-05 1.81247797e-05
      1.81247797e-05 -9.64018727e-06 -9.64018727e-06 -9.64018727e-06
      -1.78361352e-05 -1.78361352e-05 -1.78361352e-05 -3.20701511e-05
      -3.20701511e-05 -3.20701511e-05 -3.82400094e-06 -3.82400094e-06
      -3.82400094e-06 1.01086162e-05 1.01086162e-05 1.01086162e-05
      2.00838640e-05 2.00838640e-05 2.00838640e-05 -5.34670944e-05
      -5.34670944e-05 -5.34670944e-05 -5.68444484e-05 -5.68444484e-05
      -5.68444484e-05 -3.30789735e-05 -3.30789735e-05 -3.30789735e-05
      2.56207531e-05 2.56207531e-05 2.56207531e-05 2.13707208e-05
      2.13707208e-05 2.13707208e-05 1.08765407e-05 1.08765407e-05
      1.08765407e-05 -1.69785799e-05 -1.69785799e-05 -1.69785799e-05
      -3.27957714e-05 -3.27957714e-05 -3.27957714e-05 -3.74924275e-05
      -3.74924275e-05 -3.74924275e-05 -1.38877795e-06 -1.38877795e-06
      -1.38877795e-06 1.01276302e-04 1.01276302e-04 1.01276302e-04
      7.38243180e-05 7.38243180e-05 7.38243180e-05 1.45944148e-06
      1.45944148e-06 1.45944148e-06 -6.12945041e-06 -6.12945041e-06
      -6.12945041e-06 -6.78850711e-06 -6.78850711e-06 -6.78850711e-06
      1.68826464e-05 1.68826464e-05 1.68826464e-05 -3.50124651e-06
      -3.50124651e-06 -3.50124651e-06 -1.75032965e-05 -1.75032965e-05
      -1.75032965e-05 -3.08859708e-05 -3.08859708e-05 -3.08859708e-05
      -7.99659319e-05 -7.99659319e-05 -7.99659319e-05 -4.01143188e-05
      -4.01143188e-05 -4.01143188e-05 -1.18504386e-06 -1.18504386e-06
      -1.18504386e-06 7.66203229e-05 7.66203229e-05 7.66203229e-05
      7.90186750e-05 7.90186750e-05 7.90186750e-05 7.43048658e-05
      7.43048658e-05 7.43048658e-05 3.47470595e-05 3.47470595e-05
      3.47470595e-05 0. 0. 0. 0. 0. 0. -2.54348470e-05 -2.54348470e-05
      -2.54348470e-05 -5.05056123e-05 -5.05056123e-05 -5.05056123e-05
      -6.90077068e-05 -6.90077068e-05 -6.90077068e-05 -4.59061048e-05
      -4.59061048e-05 -4.59061048e-05 -3.51856988e-06 -3.51856988e-06
      -3.51856988e-06 -5.57660087e-08 -5.57660087e-08 -5.57660087e-08
      1.53979454e-05 1.53979454e-05 1.53979454e-05 9.06378409e-05
      9.06378409e-05 9.06378409e-05 6.50916336e-05 6.50916336e-05
      6.50916336e-05 5.60151711e-05 5.60151711e-05 5.60151711e-05
      4.51900851e-05 4.51900851e-05 4.51900851e-05 -1.63047480e-05
      -1.63047480e-05 -1.63047480e-05 -5.06555625e-05 -5.06555625e-05
      -5.06555625e-05 -4.39029536e-05 -4.39029536e-05 -4.39029536e-05
      -3.88795197e-05 -3.88795197e-05 -3.88795197e-05 -2.00627692e-05
      -2.00627692e-05 -2.00627692e-05 -1.29288381e-07 -1.29288381e-07
      -1.29288381e-07 -7.36918664e-20 -7.36918664e-20 -7.36918664e-20</_>
    <_>
      2.33123319e-05 2.33123319e-05 2.33123319e-05 2.10296657e-05
      2.10296657e-05 2.10296657e-05 4.85547525e-06 4.85547525e-06
      4.85547525e-06 5.71690680e-06 5.71690680e-06 5.71690680e-06
      3.58367179e-05 3.58367179e-05 3.58367179e-05 1.70930871e-05
      1.70930871e-05 1.70930871e-05 7.06570199e-06 7.06570199e-06
      7.06570199e-06 -3.13091141e-06 -3.13091141e-06 -3.13091141e-06
      1.93799879e-05 1.93799879e-05 1.93799879e-05 2.49507866e-05
      2.49507866e-05 2.49507866e-05 1.25502609e-07 1.25502609e-07
      1.25502609e-07 6.77626358e-20 6.77626358e-20 6.77626358e-20
      -7.57058615e-06 -7.57058615e-06 -7.57058615e-06 -1.89853181e-05
      -1.89853181e-05 -1.89853181e-05 -2.88353795e-06 -2.88353795e-06
      -2.88353795e-06 1.90667488e-05 1.90667488e-05 1.90667488e-05
      1.31107518e-05 1.31107518e-05 1.31107518e-05 7.18698493e-06
      7.18698493e-06 7.18698493e-06 3.53298628e-06 3.53298628e-06
      3.53298628e-06 2.32124075e-05 2.32124075e-05 2.32124075e-05
      6.11374053e-05 6.11374053e-05 6.11374053e-05 6.05045934e-05
      6.05045934e-05 6.05045934e-05 6.36080995e-06 6.36080995e-06
      6.36080995e-06 1.25502609e-07 1.25502609e-07 1.25502609e-07
      -4.18729105e-05 -4.18729105e-05 -4.18729105e-05 -1.98518064e-05
      -1.98518064e-05 -1.98518064e-05 2.00845602e-06 2.00845602e-06
      2.00845602e-06 5.15517377e-06 5.15517377e-06 5.15517377e-06
      1.14671957e-06 1.14671957e-06 1.14671957e-06 -2.26829457e-06
      -2.26829457e-06 -2.26829457e-06 -3.03484330e-06 -3.03484330e-06
      -3.03484330e-06 2.36431188e-05 2.36431188e-05 2.36431188e-05
      7.68592145e-05 7.68592145e-05 7.68592145e-05 9.24625783e-05
      9.24625783e-05 9.24625783e-05 3.50162190e-05 3.50162190e-05
      3.50162190e-05 2.63555489e-06 2.63555489e-06 2.63555489e-06
      -2.26127049e-05 -2.26127049e-05 -2.26127049e-05 -9.20591083e-06
      -9.20591083e-06 -9.20591083e-06 6.11615906e-06 6.11615906e-06
      6.11615906e-06 -1.61287255e-06 -1.61287255e-06 -1.61287255e-06
      -2.90597145e-05 -2.90597145e-05 -2.90597145e-05 -4.08068627e-05
      -4.08068627e-05 -4.08068627e-05 -3.09621646e-05 -3.09621646e-05
      -3.09621646e-05 4.04910134e-06 4.04910134e-06 4.04910134e-06
      7.35684880e-05 7.35684880e-05 7.35684880e-05 9.24625783e-05
      9.24625783e-05 9.24625783e-05 4.96733774e-05 4.96733774e-05
      4.96733774e-05 1.06677217e-05 1.06677217e-05 1.06677217e-05
      -2.77166038e-07 -2.77166038e-07 -2.77166038e-07 2.96843609e-05
      2.96843609e-05 2.96843609e-05 5.99281448e-05 5.99281448e-05
      5.99281448e-05 1.69609484e-05 1.69609484e-05 1.69609484e-05
      -4.56619418e-05 -4.56619418e-05 -4.56619418e-05 -4.89941303e-05
      -4.89941303e-05 -4.89941303e-05 -5.25568503e-05 -5.25568503e-05
      -5.25568503e-05 -4.13224552e-05 -4.13224552e-05 -4.13224552e-05
      3.47316200e-05 3.47316200e-05 3.47316200e-05 9.07892099e-05
      9.07892099e-05 9.07892099e-05 6.35080360e-05 6.35080360e-05
      6.35080360e-05 1.74507077e-05 1.74507077e-05 1.74507077e-05
      4.15067589e-05 4.15067589e-05 4.15067589e-05 7.31571781e-05
      7.31571781e-05 7.31571781e-05 7.71932973e-05 7.71932973e-05
      7.71932973e-05 1.90482733e-05 1.90482733e-05 1.90482733e-05
      -3.34982797e-05 -3.34982797e-05 -3.34982797e-05 -4.00997960e-05
      -4.00997960e-05 -4.00997960e-05 -6.15402678e-05 -6.15402678e-05
      -6.15402678e-05 -4.65971789e-05 -4.65971789e-05 -4.65971789e-05
      1.23910013e-05 1.23910013e-05 1.23910013e-05 8.78189821e-05
      8.78189821e-05 8.78189821e-05 7.74444707e-05 7.74444707e-05
      7.74444707e-05 1.92374300e-05 1.92374300e-05 1.92374300e-05
      2.81900466e-05 2.81900466e-05 2.81900466e-05 6.27903864e-05
      6.27903864e-05 6.27903864e-05 4.02900769e-05 4.02900769e-05
      4.02900769e-05 -4.66495152e-07 -4.66495152e-07 -4.66495152e-07
      -3.05337853e-05 -3.05337853e-05 -3.05337853e-05 -3.66305176e-05
      -3.66305176e-05 -3.66305176e-05 -7.13271438e-05 -7.13271438e-05
      -7.13271438e-05 -3.77656979e-05 -3.77656979e-05 -3.77656979e-05
      3.68537694e-05 3.68537694e-05 3.68537694e-05 9.24625783e-05
